6 784 64 64 64 64 26 
0 -0.639942 -0.0249885 0.910262 -0.491623 0.136653 0.668288 -0.0770151 -0.115645 0.352452 0.553491 0.352879 0.835883 -0.545275 0.684513 -0.434471 -0.553841 0.197875 -0.05501 0.721194 0.135212 0.553383 0.109122 -0.368843 0.264335 0.252987 0.389133 0.698156 0.388284 -0.852878 -0.515566 0.486902 0.698964 0.553272 -0.89123 -0.169444 -0.782271 0.635319 -0.471063 0.293744 0.642383 -0.903176 0.33499 0.829702 0.537385 -0.362146 -0.319718 0.874436 -0.754212 0.642759 -0.986165 0.953647 -0.103335 -0.389915 -0.329136 0.726739 -0.516373 -0.369475 0.55301 -0.863021 -0.0654504 -0.956998 -0.651966 0.60769 0.131062 -0.579397 -0.561373 -1.14428 -0.751234 0.398848 0.909927 1.43314 0.613621 -0.0277994 -0.0995656 -0.117417 0.129172 -0.992347 -0.362512 -1.35789 -1.36154 0.0804025 -0.139131 0.487478 0.235084 -0.119357 -0.769302 -0.771123 0.504882 -0.665971 -0.850794 -1.16408 -0.596321 -1.36441 -1.21342 -0.801527 -0.154943 -0.578919 1.6101 1.42357 0.721961 1.74196 0.0684894 0.192866 0.31716 0.616282 0.458222 -0.920573 -1.12214 -0.85619 -1.22116 0.579057 0.663783 0.705742 0.997798 0.476565 -0.142322 0.383036 -1.83152 -0.600636 -0.441113 -1.61193 -0.896162 -0.0932065 0.448938 1.88683 0.513434 0.456978 0.754376 0.178711 1.15543 -0.720612 -0.68083 0.00774498 -0.162013 -1.35776 -1.41251 -1.05183 -1.41203 -0.849825 -0.574913 0.273116 0.757134 -0.596746 -0.533401 -0.526384 0.00604569 -1.4444 0.978792 0.698129 -0.0304837 1.0374 0.242166 1.58473 0.961585 0.612653 0.976661 0.149515 0.11978 0.55353 -0.226499 -1.4383 -2.14541 -0.72347 -1.79349 -1.8329 -1.67165 -1.21371 -0.10882 -0.879982 0.488949 0.865933 -0.303834 -0.652877 -0.995054 -0.636296 0.452177 0.169591 0.554497 1.22334 0.60601 0.243669 0.41133 0.0426061 1.37433 1.12534 -0.500401 0.449972 -0.485007 -1.01232 -2.16518 -0.351002 -0.460603 -1.32193 -0.335857 -1.14569 0.937431 0.276735 -0.00482517 0.891539 -0.13361 -0.247563 -0.899841 0.539604 1.3541 0.441744 0.999744 1.33621 1.50887 1.94067 1.20025 0.454701 0.432382 -0.760571 -1.07192 -0.507586 0.253447 -0.432332 -0.495322 -0.149632 0.186415 -0.228985 -0.960802 0.345295 0.37468 -0.253977 0.738154 -0.807374 -0.284135 -1.4907 -0.257648 -0.286423 0.96588 0.845145 0.400045 1.21577 1.0619 0.534937 1.48779 0.023231 -1.56687 -1.57822 -1.49715 0.134467 -0.473468 -0.943033 -1.02848 -0.507244 -1.08371 -1.52592 -0.223899 0.0254602 0.293652 0.825288 0.453426 -0.556763 0.359674 -0.775391 -0.221541 1.22882 2.35463 1.49808 1.97567 1.92757 1.42082 0.286734 -0.180904 0.18721 -1.38713 -1.54864 -1.18917 -0.717596 -0.365189 -0.63578 -1.60965 -0.272164 -0.457812 -1.33907 -0.63597 -0.0237655 -0.788069 -0.786147 0.854075 0.932805 0.194462 -0.185594 0.288291 0.396462 0.537235 0.970919 1.65616 1.72756 1.41091 0.534307 -1.36545 -0.429895 -1.64852 -0.582042 -1.0832 -1.63687 -1.20309 -0.343983 -0.453684 -0.713283 -0.586035 -0.249955 -1.27588 -1.12044 -0.470288 0.436585 0.551226 0.266007 0.772501 -0.531251 1.37803 0.123821 2.23321 0.747019 1.54782 0.165926 0.501706 0.45832 -0.20118 -0.644191 -1.24845 -1.35828 -0.726642 -0.477471 0.0435574 -0.27684 -1.16047 -1.458 -1.38398 0.187554 -0.79012 -0.774515 0.362599 -0.13521 0.357014 -0.54193 -0.21087 0.979095 0.126785 1.96939 1.44897 1.39605 1.35252 1.37204 -0.141765 -0.624572 -0.421123 -1.07104 0.0953772 -0.233253 -0.513819 0.463621 0.882581 -0.505271 -0.0348402 -0.810518 0.335495 0.136639 0.936457 0.412987 -0.3748 0.22092 0.0413157 0.168089 -0.688973 0.138785 1.75794 1.39564 2.53784 1.36653 2.05049 1.036 -0.0174664 -0.397826 -0.713535 -0.698849 0.222031 0.6724 0.204866 0.741381 0.88678 -0.0847934 -0.0287665 -0.645205 -1.26473 -1.33076 0.611746 -0.863698 0.888471 0.706787 -0.898848 0.538038 0.218438 0.201638 0.746175 1.71333 1.59925 1.37184 0.288796 -1.11891 -1.56136 -1.44364 0.156931 0.62206 -0.789232 -0.706699 0.767132 0.389708 0.792316 -0.245294 -1.26814 -0.474006 0.151843 -0.416912 0.531989 -0.781145 -0.189918 -0.965302 -0.0199871 0.980611 0.102539 2.10758 1.18766 1.658 2.94666 1.02717 -0.201471 -0.141929 -1.71966 -0.853442 -0.613573 -0.360523 -0.300551 -0.214004 0.198315 -0.243875 0.814537 -0.13633 0.405633 0.083427 -1.13772 0.289039 0.00932032 -0.49351 0.941379 0.383222 -0.92077 1.31019 0.19234 2.00776 3.19884 2.01171 1.73673 0.92464 -1.40773 -2.17637 -2.55369 0.000367088 -0.278728 -1.84175 -0.231118 -0.191362 -0.204669 0.0443774 -0.507782 -0.401521 -0.923161 -2.06791 -1.51556 -0.853002 -0.465633 0.554019 -0.597261 0.527287 0.183772 -0.345016 0.562765 1.2251 2.18983 2.31125 1.4087 0.528594 -1.21327 -0.81795 -2.32124 -1.81395 -0.507257 -0.306749 0.0459286 0.143102 0.21948 0.751433 0.251345 -0.474151 0.549747 -1.04696 -0.210107 -0.356354 0.0510015 -0.974 0.46843 -0.267083 -0.524466 -0.0987701 0.442272 2.58072 1.9982 1.29054 -0.343919 -0.180083 -2.14032 -1.57149 -1.23285 -0.288735 -0.176399 -0.407518 -0.336651 0.309016 0.691864 0.536015 0.537126 0.173213 0.0430821 -0.435035 -0.611397 -0.973492 0.0526658 -0.741805 0.266185 0.629305 -0.389677 0.38948 0.848269 0.174796 1.36276 1.32796 0.0441953 -0.60448 -1.35497 -2.43154 -0.853201 -0.328428 -0.459915 0.413489 0.291494 1.00941 0.195985 -1.12706 0.265713 0.320366 -0.991746 -0.794478 0.842048 -0.488226 -0.635142 -0.0403848 0.0489468 -0.310775 0.691027 0.39431 0.306254 0.634265 1.20682 1.73411 0.964183 -1.02983 -0.731459 -1.16576 -0.597158 -0.397694 -0.913138 -0.896304 -0.904182 0.164791 0.478133 -0.703772 -0.272848 -0.721593 -0.307916 0.755604 1.06434 0.668109 -0.121873 -0.307086 -0.217022 -0.4593 0.476708 0.0122196 0.485861 1.14132 1.4031 1.9688 0.320871 -1.42136 -1.62363 -0.685319 -1.54988 -1.56103 0.0495557 0.40661 0.966209 -0.410056 -0.272756 -0.98177 0.0464327 -0.385942 -1.20873 -0.291754 -0.524915 -0.734316 0.402794 -0.692996 -0.824729 0.248523 0.204227 0.786994 0.974198 1.3179 0.97571 -0.294256 0.67305 -1.56109 -0.63993 -1.74873 -1.48209 -0.895114 -0.81016 0.745704 0.749701 0.173447 0.116814 -0.714372 0.687787 -0.348019 -0.467735 0.0651893 -0.752514 -0.3172 0.013523 -0.507771 0.842967 -0.551966 -0.841494 -0.876411 0.645906 -0.51707 1.26849 0.373351 -1.02373 -1.21885 -0.603157 -1.0888 -0.852156 -1.63258 -1.22737 0.463845 -0.454823 0.60606 -0.249986 -0.497109 0.374699 -1.04782 0.892309 -0.608552 -0.900756 0.739129 0.143831 -0.952202 -0.672716 -0.345192 0.316661 0.910075 0.00125478 0.0693809 0.634838 0.636074 0.51742 -0.780168 -0.773291 -1.13196 -0.785234 -0.503429 -0.0914334 -0.721142 0.471603 0.718797 0.264742 -0.717455 -0.863163 0.0833589 0.493237 -0.912052 0.619573 0.264678 0.224438 -0.0857081 0.226578 0.966861 0.564788 -0.255675 0.515249 -0.490539 0.743251 -1.06849 -0.346234 -0.141994 -1.32054 0.265094 0.215672 -1.04859 -1.23905 -0.801168 -0.465967 0.28791 -0.437841 0.475139 -0.323682 0.896282 -0.20575 -0.0624996 0.445165 0.264313 -0.0822399 -0.753245 -0.77549 -0.959379 -0.233509 -0.0729741 -0.337891 -0.0509894 -0.343875 0.153727 -0.812815 -0.0638473 0.69375 0.665958 -0.736918 -0.648067 -0.207032 -0.21723 -0.0683558 0.59045 0.903636 -0.521352 -0.493761 0.875402 -0.852861 0.137051 -0.210559 -0.821453 0.998494 -0.861497 0.256289 -0.635008 0.0137466 -0.305926 0.287564 0.143125 0.0481198 -0.0880308 0.182146 0.672806 0.615524 0.315772 0.650084 -0.426592 0.707383 0.748617 0.431016 -0.0860349 -0.809068 0.103392 -0.309099 -0.947181 -0.296918 -0.511852 -0.124746 0.277918 0.618386 0.498944 -0.526074 0 0.240311 -0.463103 -0.383587 -0.330109 -0.286685 -0.525884 0.656161 0.541802 -0.668139 0.822311 -0.226265 -0.346592 0.259554 -0.170608 0.954448 0.228287 0.213449 0.716134 -0.0549437 -0.805622 0.438005 -0.620686 0.748796 0.489812 0.805154 0.419645 0.73726 0.822204 -0.979195 0.821925 0.514227 -0.00381428 0.0788806 -0.452719 -0.344382 -0.396326 0.852331 0.25452 -0.0168684 -0.543711 0.717643 0.346042 -0.724127 0.933326 0.533286 -0.437648 -0.411195 -0.385313 0.929946 -0.131577 -0.610415 0.665303 -0.773346 -0.218649 -0.961763 -0.648118 0.734165 -0.156079 0.205532 0.0103294 -0.981247 0.824383 -0.827733 0.218596 0.337742 -0.301828 0.23991 0.384064 -1.28696 -0.305076 -0.925668 0.582811 -1.07781 -0.919325 0.160199 -0.108081 -0.529335 0.715648 -0.0601393 0.264254 -0.258196 0.230592 0.226028 -0.606476 0.316623 -0.792521 0.0434735 0.677359 -0.564454 0.553724 -0.401679 0.609093 0.471451 -0.73289 -0.695226 -0.680217 -1.04146 -0.0348496 -0.512083 -1.34041 0.377778 -0.0322115 -0.610432 0.693612 0.518356 -1.26565 -1.06207 0.183656 -0.452488 0.297302 0.257006 -0.180452 0.907709 -0.812487 0.94705 0.11351 0.0433848 -0.511866 -0.215419 -0.305203 -0.80418 -1.2837 -1.44134 -0.0477214 -0.907439 -0.481167 -0.617959 -0.0572716 0.419581 -1.38369 0.409072 0.084687 -0.467444 0.377769 0.0111304 -0.787358 -0.455943 -0.992522 0.342754 0.963642 -0.663978 0.84097 -0.910947 0.605507 -0.405803 -0.515266 -0.557632 -0.417634 -0.804092 -0.10699 -0.133235 -1.67988 -0.599813 -0.876112 -0.835258 -0.516133 -0.163343 0.976697 -0.474987 0.27046 0.628409 0.386513 0.83943 0.0402208 0.341383 -0.80914 0.742906 0.814917 -0.486492 0.635773 0.50669 0.589652 0.537146 -0.486417 0.716781 -0.938441 -0.784769 -1.29305 -1.24573 -1.10201 -0.779466 -0.959826 0.266465 -0.10835 -0.619404 -0.770991 -0.691632 -0.0779291 -0.888631 -1.09265 -0.931074 -0.0652801 -0.594351 0.464551 -0.332977 0.409802 -0.0925969 -0.517634 0.666044 -0.468018 -0.652158 1.08825 0.945265 0.211112 0.0884234 0.687132 -0.779906 -1.52656 -1.48383 -0.743682 0.221473 0.351132 1.07351 -0.365698 0.46564 -0.970838 -0.934481 0.00850305 -0.0921346 -0.484415 -1.53019 -1.57467 -1.35008 -0.051476 0.0343777 0.674763 -0.41426 0.00772018 -0.0923566 0.645422 0.790677 -0.75873 -0.854003 -0.684503 -1.01112 -0.488258 -1.69893 -1.03389 -0.61342 -0.317147 -0.222214 -0.836975 -1.11055 0.119729 -1.51159 -1.1201 -1.84338 -0.438181 -1.08348 -1.27077 -1.3117 -0.456248 0.145819 0.102774 0.235611 0.632918 -0.3288 0.865726 0.745707 0.842155 -0.866303 -0.437482 -0.977131 -0.181704 -0.487491 -2.01643 -0.759863 -0.317106 -1.15102 -0.91439 -1.08688 -0.876071 -1.07546 -1.71658 -0.640315 -0.752752 -2.26259 -1.37355 0.173409 -0.870807 -0.885991 0.662253 0.83503 0.741131 -0.391979 0.631805 -0.480893 0.823941 -0.962067 -0.218626 -1.56981 -0.564704 -0.971304 -0.803139 0.531555 -0.575224 0.873143 0.451348 0.493644 -0.885018 -1.49583 -0.935771 -0.950238 -0.26004 -0.0556626 -0.332094 0.0530526 -0.00730909 0.131658 0.148388 -0.128983 0.690902 -0.507328 0.376678 -0.849942 0.875398 0.179409 -1.94651 -0.951611 -0.963285 0.481064 -0.188126 -0.515662 1.26926 -0.231546 0.680648 0.341548 0.541776 0.503869 -0.509297 -0.418793 0.519 -1.289 0.530863 -0.154132 -0.726105 0.123195 0.888203 0.641859 -0.301659 -0.147152 0.609475 -0.886383 -1.13784 -1.28241 -1.42296 0.175842 -0.402332 0.618663 0.955862 0.801136 0.6662 0.843554 0.595073 1.35046 1.27465 0.429985 1.7043 0.688242 0.545912 -0.236401 0.671801 0.665532 -0.212285 0.80786 -0.913149 0.539753 -0.055774 0.53664 -0.932602 -0.539274 -0.480817 -0.0875965 0.744476 -0.416931 -0.163894 0.636954 -0.214192 1.00808 0.856564 0.927943 0.340699 1.80469 0.291088 1.82668 1.1543 1.07475 1.05567 0.527623 -0.170884 -0.198132 0.315305 -0.0131247 -0.634376 0.589975 -0.121228 0.0574703 -0.758227 1.06246 -0.781005 0.992443 0.762752 1.43092 0.797859 0.221542 -0.603111 -0.834429 -0.793969 0.1887 -0.302138 0.525914 1.21349 -0.014031 1.38439 -0.30907 0.500607 -0.114872 1.4727 0.906104 -0.131886 -0.847005 0.819773 -0.884935 0.78028 1.29813 0.346817 1.22877 -0.372787 0.533495 0.583358 -0.917722 0.532188 0.13577 0.162974 -0.19845 -0.281637 -1.19732 -0.328357 -0.57683 -0.281536 -0.200011 0.625457 1.34561 0.415581 1.15293 -0.375786 0.587841 -0.910122 0.238145 0.71802 0.683732 0.482533 0.286735 1.40974 1.06915 -1.08074 0.205006 -0.183107 0.123579 -0.142429 0.309818 -0.0495206 0.160396 -0.53663 0.322664 -0.687593 -0.906875 0.528965 0.239375 -0.031906 0.973718 1.66268 -0.0947808 0.799147 0.549424 0.336913 0.614536 -0.332658 0.80997 -0.93469 0.615039 1.08906 0.378851 -0.0193881 -1.36412 -0.59275 -0.645425 0.0164556 0.325234 0.906431 -0.356026 -0.0315113 0.523647 -0.2236 0.571178 0.37338 0.195508 0.133567 1.23194 0.322187 1.01099 1.21378 -0.842535 0.100089 -0.674652 0.138153 0.908549 -0.283032 0.963462 -0.738182 -0.0531811 0.379307 -0.823402 -0.515133 -0.512697 -0.0887563 -0.877792 0.497425 0.507931 0.756214 0.125197 -0.163131 -0.624788 0.0434652 0.0553967 -0.370493 -0.19619 0.693244 0.670282 0.970525 0.697281 0.192802 0.703249 -0.588871 0.512092 -0.845072 0.451225 -0.409556 -1.1832 -0.175833 -0.831576 -0.802747 -0.00248042 -1.09143 -0.600285 -0.909753 0.0400837 -0.511149 0.287251 -0.488762 0.915298 0.44546 -0.420846 -0.166394 -0.465899 -0.315545 -0.887344 -0.192644 0.215822 -0.426459 -0.210932 -0.350815 -0.786064 -1.04701 0.157118 -0.568719 -0.697551 0.0244772 -1.46429 0.284173 -0.812128 0.0163884 -0.564298 0.196378 -0.937325 0.24574 -0.151683 0.0893223 -0.639682 -1.09827 0.606082 -0.700119 0.338374 -0.331606 -0.010067 0.387319 -0.0255453 0.221664 0.959679 0.386186 0.551767 0.458249 -0.814772 -1.39941 -1.50836 -1.16387 0.0990172 0.0510299 -0.763527 0.864655 -0.394434 0.846785 0.564695 -0.358353 0.245732 -0.0383485 -0.468249 -0.065844 0.128839 -0.345964 -0.95646 -0.981904 0.519487 0.947594 -0.313236 0.398101 0.529284 -0.478619 0.455476 -0.47711 -0.505128 0.465561 -1.07555 -0.414138 -0.937145 -0.225022 0.539336 -0.89987 0.382832 -0.983764 1.03265 -0.431594 -0.306558 0.741745 0.271391 -0.810165 0.0703686 0.266902 -0.499425 0.494589 0.0501905 0.866747 -0.465918 -0.775624 0.00236654 -0.114481 -0.793355 -0.251387 -0.112314 0.825862 0.141105 -1.22949 0.364807 0.502567 -0.110152 -0.367423 -1.23204 -0.796026 -0.769216 0.705229 -0.661355 -0.919466 0.030713 -0.29761 -1.27738 0.328667 0.283668 0.352177 -0.809131 -0.526678 -0.422821 -0.171974 0.00181687 0.523208 0.639039 0.460197 0.391584 -0.38746 -0.359508 -0.214763 -0.795395 0.675914 -0.447981 0.248009 -0.537084 0.470805 0.658585 -0.915592 0.590233 -0.489674 -0.211513 0.106603 0.324223 0.255556 0.594822 -0.672475 0.709452 0.212623 -0.119935 -0.416544 0.0867887 -0.184899 0.172965 0.557342 1.02385 -0.356584 -0.545696 -0.448455 -0.654546 -0.208783 0.0121526 -0.374609 -0.608104 -0.648191 0.202772 0.700089 -1.06534 0.617944 0.722171 0.66905 0.0613126 -0.225795 -0.804062 -0.301435 0.57914 -0.40241 -0.705534 -0.0435646 -0.0640448 0.772664 -0.497388 -0.93136 0.702834 0.446615 0.222218 0.285089 -0.783562 -0.961215 -0.133455 0.184125 -1.01764 -0.533972 0.0383492 -0.70655 -0.0554144 0.130451 -0.468825 -0.697225 -0.839126 -0.842683 -0.691052 0.00980626 -0.574277 -0.00258466 -0.225409 -0.97768 0.108951 0.207128 0.750776 0.404378 0.656593 0.99934 -0.0212044 -0.726682 0.724577 0.39566 0.286959 -0.081106 0.340827 0.948058 -0.85208 -0.145288 -0.225305 0.168791 0.829588 0.452513 -0.6669 0.381974 0.577251 0.378553 -0.133104 0.414022 -0.695191 -0.560093 0 -0.0365298 -0.239624 -0.083021 -0.120164 -0.888044 -0.286713 0.141143 0.941712 0.538708 0.468196 0.477698 -0.33252 0.029806 -0.960613 0.0575032 0.931995 0.482738 -0.550014 0.83084 -0.605154 -0.138871 0.0166896 0.560407 0.481452 0.964125 0.258655 -0.352558 0.0606041 -0.981291 0.957071 -0.0218495 0.208013 0.501811 -0.341718 -0.069976 -0.514612 0.163034 -0.61691 -0.946077 0.0709521 -0.194625 -0.658578 -0.417789 0.343214 0.533311 -0.111598 -0.352456 0.474274 -0.413933 -0.138404 0.976737 -0.129522 -0.365816 0.268884 0.306637 -0.595272 -0.769561 -0.578033 0.824968 -0.873818 -0.874257 0.762179 -0.657257 0.171123 -0.413393 0.241575 0.749537 -0.0992742 -0.574526 -0.327151 0.754699 -0.300643 0.158422 -0.115858 0.0241113 0.241531 0.450761 -1.05855 0.379075 0.551916 -1.11369 -0.611727 -0.389432 0.326146 0.999073 0.16535 -0.348837 -0.954282 -0.132791 -0.369459 -1.00855 1.15965 1.12322 0.602725 0.665517 0.535834 -0.213513 -0.458768 0.890675 -0.0391592 0.142309 1.5676 0.935756 -0.401449 -1.19151 -0.144381 0.651054 -1.03943 0.488455 0.355581 -0.196239 -0.699926 0.965343 0.56504 0.0934186 -0.960218 -0.774128 -0.717665 -0.323949 -0.489571 0.606212 0.393569 -0.940712 -0.687197 0.255 -0.048461 0.353514 1.31083 0.903974 1.18168 0.588526 0.529953 -0.236658 -0.908099 -1.15324 0.932474 -0.179989 -0.0953161 0.88347 -0.366677 0.496219 0.407497 -0.52443 -0.831222 -0.0956459 0.358473 -0.913174 1.0614 -0.384138 0.364982 -0.34951 0.698224 0.449517 0.238383 0.211223 1.15004 -0.207303 -0.174049 -0.215553 0.886433 0.431744 0.306312 -0.679142 0.396046 -0.491225 0.311221 0.567739 0.764207 -0.153102 -0.604007 -0.309891 0.120001 -0.508378 0.0808223 -0.369503 0.14376 -0.0775895 1.01792 -0.508552 0.374195 -0.611065 0.312483 1.03405 1.44185 1.2829 0.483917 0.164681 -0.691215 -1.257 -0.597345 -0.396165 -0.238207 -0.240623 -0.0744101 -0.379001 -0.320162 0.484529 -0.930262 -0.545834 0.314454 -0.715201 -0.530506 -0.931846 0.837497 0.425187 -0.145482 -0.760216 -1.08709 -0.520961 0.938702 1.12033 0.366978 0.937381 1.06591 1.34311 -0.960469 0.19307 -1.74935 -0.952164 0.212817 -0.397301 0.0114513 -0.50777 -0.495069 0.527206 0.677293 0.67341 -0.534826 0.280712 -0.0288284 -0.522347 -0.678559 -0.180126 -0.202406 0.804015 -0.761964 -0.546786 1.72814 0.0207799 1.21324 1.38817 1.12811 1.07925 -0.138187 -0.240059 -1.48999 -0.0299121 -0.817973 -0.803536 -0.479567 0.0667957 0.325617 -0.971313 -0.0198869 -0.792572 -0.745844 0.508715 -0.0646131 -0.733654 0.0135905 0.865948 -0.363612 -0.152754 0.122073 1.01431 0.487998 0.379194 0.47877 1.23987 1.74747 0.0838772 -0.575332 -1.22667 -0.441381 0.196595 -0.0021975 0.146103 -0.104913 0.631723 0.774329 -0.738998 0.769026 0.332378 0.278535 -0.816002 -0.140263 -1.0155 -0.152021 -0.0313308 0.253835 -0.218406 -1.6316 0.389551 1.01759 0.650954 0.976076 1.14267 1.38523 0.417268 0.483527 -1.07846 -1.24335 -0.199797 -0.766025 -0.647544 -0.452942 0.497814 0.457035 -0.876118 0.422781 0.11866 -0.267991 -0.151428 -0.0130551 -0.999371 0.276567 0.170096 -1.58741 -0.113735 -0.140149 -0.226151 0.702785 -0.625623 -0.41577 0.362119 0.316565 0.386486 1.06665 -1.45348 -1.3357 -0.674865 -0.97922 -0.714952 -0.839298 -0.856022 0.179203 0.77083 0.179364 -0.720848 -0.70793 -0.057964 0.46685 0.558163 -0.756912 0.0138601 -1.07064 -0.528146 -0.202472 -0.0567097 -0.107106 0.904807 -0.731321 -0.45943 1.83811 0.497142 -0.72665 -1.24826 -1.79383 -1.53383 -0.477758 -0.606909 -0.662766 -1.11856 -0.653434 0.243748 0.500437 0.18925 -0.210271 0.290984 -0.17767 -0.217505 -0.0565929 -0.508144 0.863027 -0.0835487 0.353903 0.790664 -0.209489 0.64465 0.308849 0.603477 0.832688 1.25345 -0.762198 -1.47464 -0.340117 -0.69165 0.274365 -0.894534 0.158643 0.558102 -0.418334 0.904134 0.699779 0.867486 -0.488495 -0.146876 -0.573204 0.239113 0.511649 0.700952 -0.135357 -0.431591 -0.643917 0.0365649 -0.34936 1.06749 -0.178535 0.527479 2.11039 0.556534 -0.256699 -2.31208 -1.58849 -0.914575 -0.323106 0.374277 -1.0098 0.216012 0.0506262 0.937922 -0.921757 -0.0795709 0.391253 -0.887906 -0.435481 -0.824797 0.359689 0.042606 -0.421379 0.0509902 -1.23879 0.160978 0.774235 0.272043 0.663009 1.13062 0.75357 0.736262 -1.71943 -2.48694 -1.19947 -0.77587 0.811156 -0.373835 -0.334021 -0.411307 -0.659128 0.521166 0.351682 -0.607462 0.21303 0.389915 0.869802 -0.31705 -1.09002 1.1977 0.618683 -0.806766 -1.25192 -0.43904 0.293497 -0.076093 0.0323112 1.39609 1.43389 0.155455 -0.234146 -2.34036 -1.09919 -0.945815 0.704705 0.858783 -1.09117 -0.0760109 0.928636 0.593023 0.160745 0.519982 0.0659085 0.0931847 -0.923655 0.552647 0.270621 1.09279 -0.756468 -1.00481 -1.96364 -0.75727 0.796163 1.3807 0.838017 1.30483 2.60267 0.990601 -1.62638 -0.609037 -0.914181 0.096995 -0.21497 -0.404641 -1.27102 -0.0367627 0.751018 -0.344077 -0.428502 -0.57952 0.524125 -0.875938 0.146301 -0.584878 0.498973 0.357857 -0.882448 -1.0144 -2.14735 -0.417356 0.879945 1.45435 -0.245805 1.75197 2.12039 -0.2468 -1.07009 -1.97016 -0.807125 -0.229133 -0.904175 0.680374 0.211022 -0.865012 0.921616 0.58171 -0.947848 -0.0577573 -0.0469088 0.866057 -0.248609 -0.750039 -0.344925 -0.300036 -0.523784 -1.55523 -0.971409 0.188464 1.2096 1.28997 1.42349 1.50057 0.750193 1.06721 -1.13446 -0.322331 0.0385871 -0.671259 -0.0940338 -0.570765 -1.05311 -0.174976 0.175602 -0.322774 0.588357 0.522045 -0.596513 0.537865 0.277263 -1.25814 0.0734349 -0.600691 -0.756536 -1.68889 -0.88294 -0.136912 1.81082 1.79345 2.17234 0.664799 0.960339 0.668153 -0.461011 -0.462305 -1.03748 0.432189 -0.391014 0.750868 -0.469545 0.0070745 0.514481 -0.689644 -0.0277238 0.929116 -0.0142449 0.939595 0.195427 0.0999737 -0.679837 0.480852 -1.9617 -1.85207 -1.18259 -0.0259564 0.432215 1.97632 1.10381 1.35581 1.51953 0.065569 -0.856028 -0.917706 0.492786 -1.05086 0.673662 0.803007 -0.481825 -0.196151 -0.49143 -0.639993 0.446302 0.478961 0.240764 -0.410553 -0.770662 -0.0345262 -0.219334 -1.07354 -0.984731 -1.61997 -1.23979 -0.91939 -0.191479 1.04586 1.6507 1.07211 0.732448 -1.04462 0.279834 -0.757073 -0.133535 -0.859569 -0.987386 -0.964813 0.366348 -0.44758 -0.447958 0.790507 0.406028 1.02818 0.503216 1.07958 0.0698138 0.205816 -0.665519 -0.0987254 -1.61381 -1.80532 -1.59088 -1.01377 1.37361 0.546081 0.203101 0.210989 0.500808 0.0872448 -0.653388 0.114519 -0.830211 -0.896926 0.0883285 -0.915617 0.755006 -1.15066 -1.00427 0.610982 -0.887094 -0.549552 0.346356 0.0609363 0.1898 0.277802 -1.25264 -0.76513 -0.674338 -1.50088 -0.74582 -0.0178355 -0.134725 -0.132135 0.769846 0.904837 0.550908 0.696413 0.135923 -0.831445 -0.701064 -0.897722 0.502425 -0.2509 0.196289 -0.32774 -0.884037 -0.8759 -0.00822391 0.834392 0.946238 -0.411018 0.468935 -0.935425 -0.455798 -1.38764 0.154112 -1.26403 -0.444551 0.804519 1.12016 0.445102 1.10576 0.359297 0.120441 1.12465 0.682743 0.68307 -0.626488 0.892781 -1.00112 0.685045 0.314593 0.13158 -0.855939 0.194479 0.696977 -0.766267 -0.924372 -0.946741 0.939267 -0.457373 0.582707 0.577574 0.394386 0.170093 -1.00251 0.133894 -0.381217 0.00208524 0.897138 -0.83762 0.214705 -0.0622959 0.586416 -0.766694 -0.38823 0.939037 -0.959573 0.768546 0.160218 -0.740226 0.291526 -0.380851 -0.521924 -0.846891 -0.894577 -0.420801 -0.906608 0.518851 0.0572967 -0.302119 0.107041 0.166722 -0.977672 -0.706282 -0.325108 -0.475002 -0.0435747 -0.4025 0.330211 -0.60646 0.932483 0.644344 0.966114 -0.535755 0.439829 -0.333949 0.234064 -0.11405 -0.639912 0 -0.335527 0.66998 0.508278 0.484842 0.890559 -0.784503 0.56721 -0.21809 0.430659 0.179992 0.915205 -0.445581 0.933883 0.601825 -0.842308 0.625622 -0.556608 0.306094 -0.864032 0.605174 -0.364815 -0.588526 0.453987 -0.0386156 -0.705789 0.798635 0.821674 -0.406838 0.346772 0.55016 -0.150911 -0.388667 -0.558038 -0.814361 -0.820181 -0.781812 -0.628518 0.971374 1.05703 -0.810395 -0.151741 0.665775 -0.232185 0.817988 0.750399 0.23059 0.0393511 0.642507 -0.595832 -0.516999 -0.356291 -0.696085 0.0529853 -0.685623 0.112051 0.209544 -0.0970401 0.364147 -0.335049 -0.407722 -0.76206 0.840561 -0.929983 -0.283421 0.125696 0.979472 -0.347289 0.291775 0.300257 0.482346 0.192889 0.447037 0.684433 1.16177 0.748686 1.13103 0.298454 -0.669613 0.908403 -0.499364 0.234183 -0.146963 -0.880577 0.738727 -0.898075 0.117801 0.417044 1.05489 0.42411 0.327374 -0.407074 -0.151501 0.476018 0.566964 0.175211 1.30181 0.552495 0.253934 1.98123 0.18319 1.74704 1.41463 2.01268 1.13321 0.321109 -0.823316 0.280475 -0.994868 -0.0969226 -0.318443 -0.320641 0.277696 0.795368 0.385163 0.0194629 0.871066 0.117707 -0.248094 -0.324097 -1.0424 0.853296 -0.348594 0.849236 0.0525213 0.410577 1.25024 1.18019 2.09031 1.30302 1.8264 1.13397 -0.242713 -0.360358 -0.496601 0.464295 -0.729387 -0.00432796 -0.287819 -0.643476 0.0627128 -0.459374 -0.290874 0.455548 0.524006 -0.400923 -0.87217 -1.32174 -0.412797 0.391016 0.229771 -0.361018 -0.0611577 1.36127 1.62595 0.676944 1.08295 0.883966 0.576204 0.139661 1.24169 -0.18898 1.09858 -0.397316 -0.432731 0.493319 0.912642 -0.168924 -0.778448 0.841332 0.764749 -0.622895 -0.586469 -1.24773 -0.330829 -0.0011311 -1.15482 0.734707 -0.703776 -0.364672 -0.00782231 1.5589 0.710111 0.557388 1.43739 0.578037 0.802023 1.76541 1.71629 0.589254 0.35448 1.69517 -0.130253 0.216393 -0.162555 -0.402813 0.473023 0.126333 0.968802 0.933708 -0.974154 0.146519 -0.467022 -0.347929 -0.824555 -0.72019 -0.536282 -0.271925 0.955088 0.471711 -0.00114227 -0.307602 0.419123 0.018162 2.19762 0.757338 1.75161 0.538862 0.108129 1.15066 1.33486 -0.488086 -0.689898 0.22344 0.926727 0.517614 -0.488768 0.125921 0.830191 -1.47302 -1.72922 -1.16029 -0.112021 -0.830269 0.327771 0.069307 -0.817221 -1.35378 -1.61342 -1.54832 -0.683749 -0.976255 1.0559 1.58023 1.29499 0.229648 2.03212 -0.144993 0.898457 0.967237 -0.45367 0.889139 -0.737199 0.887189 0.338182 0.884253 -1.2782 -0.916653 -1.0503 -0.392639 0.255519 -1.17622 -1.66097 -0.619476 -1.69689 -0.908323 -2.02177 -1.63756 -1.68589 -0.748407 0.284173 1.22936 0.578345 1.13156 1.15778 1.23117 -0.433829 -0.295946 -0.187388 -0.0816047 -0.757454 0.238819 0.275982 -0.818554 0.736285 -1.21862 -0.673032 -0.506332 -0.461231 -1.38585 -0.868278 -1.2404 -1.67646 -2.40125 -2.54894 -1.29864 -1.42574 -0.863084 -0.701265 1.80372 0.721923 1.16331 0.81175 0.349104 1.52189 0.882782 0.804029 0.505257 0.872902 -0.609882 -0.362279 -0.404451 -0.0908559 -0.839664 -0.357163 -0.0788589 -1.06688 -0.00558279 -0.875672 -1.14897 -0.699002 -0.0239215 -1.59033 0.107011 -0.847712 -1.31995 0.873653 0.946192 0.236781 0.934895 1.53197 0.811799 0.863106 -0.237036 0.782512 -0.51874 -0.321953 -0.959675 -0.637368 0.378454 -0.920913 0.205866 -0.989021 -0.806881 0.0509747 -0.461439 0.420243 0.105889 0.50991 -0.0345599 0.108243 0.456085 0.473682 0.318267 -0.396442 0.24213 0.466626 1.53675 2.19111 1.10164 1.32983 0.580862 -0.616524 0.348722 -0.0083652 -0.488128 0.413517 0.458487 -0.0561927 -0.0571983 -0.784262 -0.62291 0.00990553 -0.437977 0.611754 -0.440572 0.953249 -0.711942 0.405005 0.672345 0.25234 0.291399 0.167966 0.49032 0.814008 0.666082 1.48702 0.665585 0.452572 0.224508 -0.202887 0.857804 -0.553808 0.851694 0.589061 -0.0449592 -0.108646 0.84767 -0.579137 -1.13304 0.225003 -0.0307317 -1.34869 0.0134832 0.544066 -0.762819 0.983353 0.434221 0.892297 0.194635 0.363962 1.88273 0.56993 -0.302397 -0.120358 0.410921 1.23581 -0.340349 1.1738 -0.621783 0.0746461 0.46767 -0.214313 0.277885 -0.860024 0.939334 -0.901266 -0.415358 0.563942 -1.1657 0.285543 -1.14357 0.38621 0.698976 -0.202731 0.995728 0.104077 1.02891 0.397273 2.05082 0.355785 -0.25257 0.637938 -0.133106 0.0657673 1.18092 0.262318 -0.413706 -0.190785 0.304544 -0.233596 -0.7532 -0.458625 0.875044 -0.241063 0.0807321 -0.980181 -0.746898 -0.336381 -0.445624 -1.24306 -0.789095 -0.603604 -0.876272 -0.257062 0.963493 0.778205 1.05944 0.264644 -0.173041 -1.18203 -0.11783 0.324762 -0.301504 0.660752 0.599676 0.0616285 -0.751497 -0.823818 0.716 0.90916 -0.411792 -0.369822 -1.18601 -1.07828 -0.506263 -1.15793 0.130537 -1.08225 -1.96245 -0.296333 -1.74761 -1.01699 -0.150142 0.181323 0.324209 0.549509 0.281176 -0.732806 0.747414 -0.145473 -0.621176 1.21077 0.441597 0.414442 0.375281 0.240184 -0.841353 -0.323124 -0.117235 -0.758552 0.0746804 -0.326166 -0.0186098 -1.33675 -1.26497 -0.709892 -1.75351 -1.71601 -1.66343 -0.80565 -0.670886 0.430608 -0.645552 0.276238 0.996477 0.846274 0.897082 -0.343143 0.47264 0.615779 0.572352 0.819924 -0.227976 0.908031 -0.824385 -0.439449 -0.333328 -1.35842 -1.01218 0.0044915 -1.09428 -0.884727 -0.266102 -0.598435 -1.06052 -0.0494375 -1.52059 -0.788115 -0.905035 -0.536916 0.33569 0.160289 -0.569109 0.0141794 -0.759529 -1.36672 0.324346 1.07252 0.467452 -0.185693 0.132851 -0.240748 0.990243 0.0410987 -0.471264 -1.04455 -1.13902 -0.110171 -1.38125 -1.04613 0.13451 -0.429512 -0.104642 -0.435083 -1.28792 -0.67478 -0.128932 0.42303 -0.802201 -0.381532 -0.655573 0.436888 -0.768137 -0.397045 -1.29437 0.133643 -0.622505 0.27563 0.239313 -0.4152 0.257381 0.664255 -0.357561 -0.49529 0.376534 -0.778725 -0.280664 0.342062 0.331276 0.193274 -0.987887 -0.995135 -1.26492 -0.824041 -0.00334999 -0.729208 -1.2286 -1.30236 -0.427154 -1.33923 -0.747903 -0.583302 -0.596076 -0.52655 0.0350144 -0.346236 -0.504063 -0.898925 -0.888267 -0.165595 0.404208 0.466341 -0.748106 -0.537925 -0.0473365 -0.442056 -0.221831 -0.697029 0.724665 -0.878439 -0.681729 -0.673397 0.0812936 -1.37167 -0.226362 0.174786 -1.09791 -0.734843 -1.31019 -1.20427 -0.895859 -1.25771 0.719064 0.90165 -0.0756658 0.131365 0.847268 0.178688 0.23859 -0.307167 0.556342 0.0351312 -1.37203 1.17805 0.794288 0.972717 0.498945 0.614342 0.152874 -0.576284 0.465516 -1.61681 -0.484381 -1.04051 -0.955294 -0.682172 -1.94393 -0.539456 -0.601774 -0.506675 -0.207761 -0.0365446 0.137261 0.0691986 0.598689 0.862442 0.925451 -0.466774 -0.0122804 -0.21986 0.748424 0.191195 -0.192311 -0.143108 0.70278 0.822946 -0.496915 -0.308691 -0.685479 -0.245367 -0.560424 -1.49087 -0.8342 -0.36336 -0.690685 -0.0266365 -0.148922 -0.43066 0.599557 -0.478547 0.567625 0.453615 -0.48676 -0.779157 0.685367 0.267304 1.51625 0.291096 0.641781 0.70782 0.769404 1.23202 1.22594 -0.200941 0.715194 0.62882 -0.585386 -0.99551 -1.00328 -0.705598 -1.13227 -0.305426 -0.54763 0.108225 0.625136 -0.914848 -0.693555 0.206346 -0.385959 -0.665137 -0.745856 -0.0841588 0.366416 0.0542153 -0.275652 0.584434 0.630917 -0.304725 -0.66131 -0.301146 0.0947517 -0.702069 -0.761228 -0.880231 0.957408 0.185466 0.540983 -1.05511 0.507662 0.875526 -0.683616 0.260166 0.77886 -0.843749 -0.785973 0.331648 -0.54674 0.114704 0.892979 0.823779 -0.355705 0.94091 -0.77834 0.721427 -0.430004 -0.637894 0.0305233 0.973588 -0.378866 0.777521 0.295089 -0.831847 -0.0410731 0.242322 0.6208 -0.886472 0.497443 -0.0125749 -0.667816 -0.970404 -0.182939 -0.653177 0.333994 0.725334 0 0.50157 0.218886 0.30824 -0.926369 -0.682656 -0.302841 -0.249866 0.162006 -0.679178 -0.0589814 0.291006 0.213715 -0.000293804 -0.28423 -0.193569 0.56002 0.26938 -0.499348 0.978917 -0.365657 -0.563211 -0.985258 0.524068 -0.270357 0.583466 -0.929871 -0.768408 0.0245857 -0.737352 0.350567 -0.510683 -0.0337888 0.927903 0.0468941 -0.64179 0.0209781 0.882013 -0.845468 -0.743193 0.783826 -0.795868 0.419649 0.45585 0.508878 -0.483317 -0.600864 0.613505 -0.586246 0.31438 -0.67922 0.983093 0.530751 0.0342122 -0.233766 0.175745 0.467043 0.941158 0.345193 -0.236324 -0.595693 -0.262928 0.147483 -0.00811949 -0.572915 0.572928 0.323201 0.0475096 0.0577144 0.167549 -0.225788 0.0215184 -1.1341 -0.567647 -0.375576 -0.142651 0.498723 0.501157 -0.618444 0.0946272 0.0808176 -1.0295 0.223704 -0.414854 -0.994829 0.174082 0.336351 -0.283994 0.542866 -0.283495 -0.563267 -0.446677 0.370494 0.118195 0.394004 0.594703 0.0821223 0.709782 -0.143654 0.434028 0.228744 -0.701734 -1.49673 -0.655041 -0.195643 -0.231344 -0.159703 0.314352 0.34026 0.0567317 -0.411025 0.377671 -0.0367542 0.299229 -0.509027 -0.249324 -0.739693 0.950066 0.637063 -0.564051 -0.752168 -0.677578 -0.98599 -0.428319 0.348563 0.596018 -0.834983 -0.344419 0.442007 0.333156 -0.855393 -0.0431869 0.316472 -0.897186 -0.227187 0.56028 -0.611649 -0.306223 -0.154115 0.947115 0.571242 -0.0363932 0.342093 -0.574894 -0.199291 -0.051133 -0.10654 0.0874306 -0.014873 -0.763535 -0.882778 0.0933672 -0.75678 -0.418783 0.377518 -0.392273 0.431902 -1.29676 -1.24341 -1.23901 0.144292 0.311795 -0.109229 0.233068 0.754455 0.801278 0.216235 -0.058933 0.715522 -0.443144 -0.598153 0.0311771 0.678586 -0.202774 -0.821595 0.0561114 -1.25857 0.292719 -0.5835 0.2446 -0.442171 -0.389881 0.406271 0.846678 0.691617 -0.572687 -0.99899 -0.48693 -0.176835 0.385226 -0.712584 -0.226334 0.524792 -0.868518 -0.450051 -0.379656 0.987413 0.210725 0.553098 0.532325 0.607881 -0.513586 -0.614186 -0.918518 -0.828475 -0.45358 0.275543 0.249391 -0.802962 -0.216647 -0.601107 -0.109705 0.230319 -1.50257 -0.794039 -0.140542 0.078989 0.859413 -0.534836 -0.369113 -0.247329 0.192779 0.803103 0.400407 0.421943 -0.936251 0.332317 -0.28432 -0.739155 0.154697 0.484861 0.234663 0.516677 -0.551783 -0.758133 -0.968176 -1.29608 0.0679005 -1.09503 0.415931 0.116573 -1.16606 0.358699 -1.23487 0.581394 -0.243596 -0.0326618 0.39903 0.277969 0.924989 0.227677 0.744503 0.309562 -0.320796 0.124905 0.581821 -0.85143 0.0306872 -0.575624 -0.984646 -0.468731 -0.79241 -1.18158 0.0190331 0.382426 0.258472 -0.388943 -1.17334 -0.419432 -0.376535 -0.0338421 0.0881061 0.761856 0.816046 0.974055 0.684216 0.57459 0.441377 -0.146952 0.190704 0.0233263 -0.985834 0.372217 -0.725421 -0.541281 -0.187329 -1.68491 -0.263787 -0.397616 -0.9763 -1.19438 -0.555993 -0.351413 0.605005 0.0973547 -0.617811 0.13077 0.788911 0.783151 0.104755 0.183688 0.772453 -0.172024 0.0679097 0.0983292 -0.424592 0.57897 0.518304 0.243728 -0.70617 0.665129 0.332271 -1.00731 -0.767313 -1.577 -1.40637 0.467284 -0.816459 -1.27502 -0.710926 0.608413 0.869434 -1.20396 -0.866736 -0.405397 0.714167 -0.0194741 -0.120869 -0.772217 -0.171833 0.0359025 0.0749353 -0.794633 1.07726 0.956521 0.819342 -0.132309 -0.549405 0.739016 -0.935771 -0.270322 -1.36048 -1.28258 -0.769293 0.164712 -0.635399 -1.25199 0.658085 -0.106439 -0.621376 -0.703516 -0.224001 -0.548099 0.0757927 0.747736 -0.568513 0.466176 0.371328 -0.399063 0.939869 -0.13737 1.7684 1.64193 -0.0242175 -0.621455 -0.323126 0.651282 -0.630264 -1.09565 -1.70036 -0.829995 -0.478332 -1.33472 -0.691771 0.072579 -0.971166 0.480455 0.306207 0.190234 -0.873801 -0.638768 -0.373708 0.192258 -0.2202 -1.64901 0.293779 0.226774 0.939538 0.241384 1.06734 0.313174 -0.468617 -0.598951 0.118746 0.637802 0.822895 -0.119133 -0.0937959 -0.434667 -0.478468 0.194705 -1.1373 -0.482383 -1.84754 -0.390468 -0.557894 -0.622635 -0.886225 0.0812395 -0.548098 -0.312138 -0.548916 -0.236726 0.139981 0.784114 1.00341 -0.290735 0.231148 1.48055 0.230568 -0.1304 0.435389 -0.00578043 0.28065 -0.386738 -0.954602 -0.352775 -0.961476 -0.539405 -0.81994 -0.4074 0.170257 -0.197279 0.142185 -0.533304 -0.878705 0.607398 0.567698 0.334837 0.463808 0.726063 0.594482 0.966204 0.610131 1.44776 0.118983 -0.440267 0.0717996 -0.936111 0.94151 -0.2108 0.385763 -0.835242 -0.800887 -0.140714 -1.10577 -0.518517 -1.2978 0.248777 -0.296864 0.019522 -1.06284 -1.15934 0.255118 0.513007 -0.367511 -0.104272 0.179243 0.334723 -0.172715 1.40196 0.698301 -0.303985 0.133831 -0.0625167 -0.676861 -0.37201 -0.0546659 0.633921 0.11445 -0.320229 -0.631379 0.1357 0.29992 0.608579 -1.7948 -1.37454 -0.0135447 -0.113579 0.9066 -0.0448861 0.0526377 1.14199 0.9193 -0.56888 -0.358036 -0.349348 1.08136 1.49526 -0.222142 -0.834355 0.269873 -0.445889 0.537228 0.281729 0.38394 -0.979514 -0.584542 -0.473613 0.871757 -1.11983 -0.0974865 -0.663576 -0.620733 -0.836679 0.596827 1.59973 1.98473 1.76729 1.21216 0.660746 1.53395 0.169506 0.0736502 -0.77215 0.663517 -0.430743 0.562336 -0.293449 -0.0479875 -1.15811 -0.891654 -0.821206 0.658342 0.466895 -1.0215 0.344897 -0.804662 0.131827 0.349144 -0.663386 -1.40712 -1.17927 -0.131309 3.06719 3.74647 2.76538 1.96895 1.67404 0.531584 -0.609161 0.360596 -0.764469 0.0267003 1.38723 0.581077 0.208411 -0.675904 -0.163051 -0.586422 -0.451025 0.67593 0.878161 -0.438173 -0.246057 -1.61268 -0.467226 0.0596928 -0.565506 -0.130738 -0.647948 2.97639 3.19627 3.87039 2.08969 2.13488 1.46973 0.815044 -0.103329 -0.138559 -1.25713 0.316225 0.141427 0.986902 -0.622734 -0.533845 -0.339484 0.734501 0.554988 -0.0848987 0.000545845 0.778009 -0.432109 -1.48056 -0.849385 0.00838517 -0.217043 -0.444409 1.25745 2.07119 3.34363 3.61303 2.79203 1.15985 1.13997 0.521092 0.681547 -0.627986 0.0231367 -0.10756 -1.16798 -0.285952 -0.216209 0.195019 0.496605 0.541322 0.313754 -0.290458 0.296843 -0.47233 0.262101 -0.176055 -1.18176 -0.685533 -0.878018 0.106435 1.10322 1.72427 3.7737 3.35153 3.53992 1.60038 0.275713 -0.384993 1.13033 -0.126689 0.240676 -0.696898 -0.163206 -1.03911 0.530121 0.179549 -0.199646 -0.338725 0.796656 0.339229 0.75771 -0.504645 0.0230932 -1.14187 -0.837455 -0.606874 0.471428 0.849394 1.10556 2.50676 3.40576 2.12542 1.36754 0.566459 -0.0431014 0.313922 0.888905 0.17049 -0.238309 0.713985 0.606624 -0.807265 -1.30845 -0.445651 0.499661 0.576103 -0.995833 0.372288 0.944373 -0.35638 -0.640316 -0.525634 -0.807427 0.106291 0.350356 -0.156084 1.27621 1.87026 2.71584 2.59659 2.22154 1.6386 1.39666 0.592768 -0.472165 0.830234 0.287563 0.193017 -0.44495 -0.08778 0.338681 0.397203 0.535743 0.155143 -0.386476 0.744337 -0.123787 0.841738 0.314013 0.823588 -0.526521 -0.747705 -0.784913 0.251058 0.405052 0.964759 2.1024 1.34956 1.09261 1.48923 0.487639 -0.173548 0.701146 1.01108 0.0855826 -0.321822 -0.342302 -0.890852 -0.27658 0.336893 0.593618 0.938925 0.54767 0.619509 0.624065 0.523728 0.747681 0.580051 -0.214804 -0.646535 -0.766418 0.595202 0.696379 0.589704 -0.251612 -0.351508 0.433494 0.327553 0.848104 0.649 -0.180877 -0.61521 -0.529324 0.760656 -0.0912643 0.00659813 -0.349477 -0.825222 -0.60793 0.752908 0.995017 -0.70817 0.986178 0.0969969 0.926664 0.631242 -0.676964 -0.268651 0.90241 0.340114 0.240624 0.965923 0.619458 0.337517 0.789876 -0.83753 -0.283894 0.254398 -0.394605 0.57826 0.863996 0.403449 0.270883 -0.696855 0.166885 0.559898 -0.722795 0.158947 0.399966 0 -0.135082 0.0465783 0.101895 0.448805 0.451299 0.668946 -0.334473 -0.491385 -0.59739 -0.554148 -0.373051 -0.548653 -0.708712 -0.891952 0.939491 -0.996525 0.495372 -0.422076 -0.720893 -0.194269 0.555754 -0.290594 -0.888102 -0.114693 -0.589211 -0.118519 -0.877048 -0.99009 0.578328 0.0844651 0.671674 -0.689419 -0.318761 0.62589 -0.3778 -0.847884 -0.972378 0.0963531 0.655359 0.478803 0.0224838 0.99903 0.114953 -0.66732 -0.667716 0.336144 0.739002 -0.553137 -0.148159 0.215207 -0.657321 0.497274 -0.0323147 0.532501 0.11131 -0.596524 -0.821681 -0.959225 0.223499 -0.361513 0.811668 0.0347562 -0.188368 0.590344 0.0276038 -0.464641 -1.00308 -0.599769 -0.346428 -0.409661 0.138733 0.346118 -0.221258 -0.699959 -0.177193 -0.768947 -0.707812 0.338097 -0.302818 -0.851334 -0.927129 0.463721 -0.128582 0.521388 -0.363911 -0.452979 -0.958812 -0.68304 0.298792 0.343695 -0.470272 -0.662624 -0.378599 -0.860801 -0.224259 0.16914 -0.781946 -0.650412 -0.581681 0.468247 0.535173 0.582091 0.0496039 0.85651 -0.798957 0.270795 -0.726497 -0.991499 0.29213 0.061471 -0.987732 -0.0317329 0.528075 0.449497 0.558751 -1.01592 -0.593695 -1.55491 0.168532 -0.196264 -1.16028 0.326544 -0.593764 -0.944749 -1.10536 -1.1317 0.256062 -0.3513 0.626918 1.41654 0.591633 0.796405 -0.999048 -0.221659 0.0789967 -0.483724 0.199582 -1.56418 -0.19681 -0.837758 -0.617568 0.268628 -0.494041 0.301801 -1.34145 -1.05058 0.00386834 -1.54457 -1.18579 -0.279255 -0.0471575 -1.08618 -1.71561 0.146697 0.352183 -0.459876 1.19577 0.957185 -0.1986 -0.2217 0.480239 -0.783895 0.0919728 -0.997209 -1.02664 -0.0571982 -0.771161 -0.151108 -0.332868 -0.108707 0.799589 -0.658132 -1.23998 -0.969491 -0.435613 -0.469015 -0.380416 -1.85252 -1.33108 -2.27235 -0.556391 -1.78388 -1.02185 0.684514 1.28971 0.48496 0.068478 -0.015138 -0.702315 0.358834 -0.826773 -0.861674 -0.425801 -0.735868 0.0211962 0.336443 0.846807 -0.247834 0.675923 0.500591 0.710785 -0.134833 -0.515456 -0.402473 0.110191 -0.84752 -1.50901 -2.00133 -0.921726 -1.01781 -0.673882 0.559158 1.67799 0.244604 0.554837 0.458974 0.613812 0.0170692 -0.638341 0.327369 0.255121 0.154505 -0.422945 -0.205843 0.203588 -0.516274 -0.186832 0.859273 0.774286 0.497033 0.351665 0.248094 0.690861 -0.385126 -0.927337 -0.181021 -0.812627 -0.45281 0.40318 0.0112553 0.940555 1.33673 0.710729 0.615636 -0.780368 -0.958855 -0.247757 -0.929967 -0.461085 -0.918041 0.758009 -0.0926901 -0.192089 -0.910097 -0.619356 -0.322756 -0.261749 0.797587 0.736637 0.57784 0.25392 0.0161516 0.120382 -1.93543 -1.00024 -0.0561884 -0.935667 0.656921 0.474604 0.839606 1.54668 1.08497 -0.2707 -0.0814655 -0.503533 -0.0703077 -0.18999 0.172265 0.389498 -0.70738 -0.133546 -0.437076 0.203212 0.641681 0.3539 0.151643 1.05207 0.325798 -0.387045 -0.126166 -0.815491 -0.728844 -0.929587 -0.462599 -1.37471 -0.312621 -0.29451 -0.037779 1.09614 -0.48202 -0.836381 -0.230013 0.211944 -0.949089 0.847211 -0.158279 0.283234 -0.169557 -0.148529 0.24481 0.111787 0.170554 0.450191 -0.0191358 -0.247103 -0.1203 -1.10049 -0.695572 -1.24144 -0.0136102 0.0582965 -0.221543 0.311548 -1.26313 -0.477388 0.0571782 -0.0702537 -0.0392979 0.789063 0.88208 0.41333 -0.494582 -0.385709 0.334422 -0.949981 0.324959 0.0431386 0.0935087 -0.421843 0.79711 0.73062 -0.322075 0.831606 -0.418788 -0.00131252 -0.192281 0.452052 0.105281 -1.05363 -1.20988 -0.0766488 -1.7423 -1.6965 -0.842378 -0.843609 -0.266303 1.4198 0.0361555 0.50491 -0.267513 -1.02657 -0.741848 -0.522016 0.509051 -0.382029 0.0626041 -0.554982 0.566853 1.20551 -0.714021 -0.47729 -0.859635 -0.925413 -1.47541 -0.324408 -1.47115 -1.62063 -1.33863 -0.2943 -0.26937 -0.242744 -1.70171 0.295218 0.602001 2.07732 1.04922 0.544871 0.0858093 0.228792 -0.393494 -0.458133 0.855502 0.435294 -0.630531 -0.418789 1.78005 0.592762 0.786303 0.203983 -0.731112 -0.328266 -0.579796 -0.503597 -0.933833 -0.666422 -0.91293 0.147513 -1.647 -1.83772 -0.360412 0.441221 2.11337 0.997504 0.704003 -1.09406 -1.03173 -1.0787 0.165292 -0.87013 -0.414927 -0.480303 0.49934 -0.475536 0.260517 1.27196 0.287894 1.41158 -0.899068 0.00650142 -0.210791 -0.313663 -0.0157671 -0.162481 0.172802 0.0958065 0.765247 0.575085 0.465695 0.577901 1.59205 1.12337 -0.0456801 -0.851578 -0.26371 -0.067415 0.026195 -0.633949 -0.475175 0.0335883 -0.76011 0.646925 0.613718 0.257024 0.914698 0.949953 0.300154 0.212134 0.118106 1.14923 1.79827 0.0656141 2.05377 2.21999 0.689702 1.54623 1.39604 0.775119 1.61069 0.983871 -1.13521 -0.876542 -0.28777 0.0597591 -0.665696 -0.462781 0.260541 0.295504 -0.498222 1.1045 0.863631 0.980957 1.08562 0.313878 1.20479 1.20416 1.30891 0.955272 1.82558 0.665482 0.831317 1.63787 0.81383 2.07188 1.15211 1.3152 0.575082 0.121424 -0.778134 -1.33662 -1.57304 -0.441877 0.393578 -0.76148 0.890139 -0.541497 -0.171521 0.643397 0.0070251 0.878021 1.73862 0.916807 -0.217889 -0.532136 0.275806 1.24716 1.22319 1.23756 1.53082 0.0362175 -0.0584796 0.0686808 -0.271959 -0.0333896 -1.22603 -1.59504 -0.642311 -1.30683 0.0126531 0.306299 1.08832 0.865514 -0.588749 -0.391596 0.927286 -0.230643 1.35387 1.0601 0.832224 -0.529807 0.639133 0.459762 1.38027 0.01659 0.670123 0.666558 -0.079878 -0.182655 0.445194 0.312143 -1.00339 0.262636 0.233536 -0.763742 -1.16266 0.0460266 0.400735 -0.335077 -0.113907 1.1878 0.44214 -0.397672 0.927954 0.0373487 0.671478 -0.417144 -0.239341 0.532275 0.429264 -0.340877 0.099391 -0.104598 1.12647 0.568429 0.0814698 -1.37603 0.0579705 -0.383382 -0.970193 -1.6539 -1.34307 -1.4775 0.23081 0.793762 0.458957 1.69756 0.370473 0.0649521 0.892041 -0.0118676 -0.523029 -0.443616 0.570636 -0.355664 -0.774493 0.352757 0.615027 -0.818473 0.495309 0.378917 0.263676 -0.396133 0.737659 -0.321041 -0.590478 -0.582211 -1.08206 -0.34435 -0.830413 -0.0945373 -0.878415 0.51602 0.840078 1.21732 1.17489 1.03257 1.02446 -0.991696 -0.627101 -0.806558 0.706236 -1.18608 -0.933376 0.794033 0.190694 0.226023 -0.684915 -0.495691 1.28846 1.57823 -0.167566 -0.191312 0.404542 -1.21978 -1.37457 -2.26995 -0.412094 -0.708984 -0.837341 0.292494 1.05398 1.30571 0.72477 -0.117896 -0.114487 0.262784 -0.0211488 0.642124 0.0858057 -0.359513 -0.193322 0.276355 -0.705472 -0.278508 -0.603894 1.32226 0.840209 1.53839 -0.0902378 -0.183424 -0.510769 -0.0664221 -1.71623 -1.65705 -1.7039 0.179097 0.0786883 0.0320809 -0.295142 -0.419011 0.992239 -0.555929 -0.681993 -0.0312135 -0.115269 0.944113 -0.947651 -1.02766 -0.256822 0.247017 0.313882 0.437636 0.823604 1.24082 1.0731 1.57096 0.91025 -0.711242 -0.567632 -0.46806 -1.86743 -0.683961 -1.50463 0.175132 -1.06901 -0.105129 0.846257 0.112762 0.670041 -0.0518777 0.682884 -0.319663 0.967343 -0.539488 0.522073 -1.1083 0.0344491 -0.982584 -0.789307 0.456178 -0.572973 -0.199335 1.02222 -0.347434 -0.442121 -0.379083 -0.505938 -1.21893 -1.30832 0.471325 0.140288 -0.712268 -0.964604 0.0902517 0.290384 0.18797 -0.0320502 0.231699 0.39512 -0.228799 0.644057 -0.203809 0.906454 0.613165 0.482834 -0.500655 -0.298594 -0.115359 0.0451598 0.302296 1.00313 -0.199899 0.74378 -0.865606 -0.774449 0.0595066 0.0620689 0.347101 0.485856 0.747959 -0.920049 -0.30189 -0.0208323 0.112455 0.371163 -0.0318273 -0.831524 0.0751595 -0.0940278 0.229392 0.713658 0.0459674 -0.106487 0.961394 -0.652754 -0.91497 -0.156218 0.129588 -0.644186 0.122653 -0.608576 0.803668 0.0657606 -0.796112 -0.37817 0.145505 -0.60684 0.50315 0.850593 0.715701 0.102863 0.446885 0.811058 0.107872 0.167248 0 0.70497 -0.198464 0.824185 -0.626835 0.588939 -0.813891 -0.995131 0.90401 -0.56129 0.992134 -0.512014 -0.439574 -0.763714 0.358355 0.642418 -0.0687399 0.0764873 0.0664825 -0.984756 -0.246223 -0.656526 0.869034 -0.01408 -0.772558 0.0191519 0.798359 -0.798683 -0.778345 -0.847769 -0.0555295 0.965469 -0.11478 0.71471 0.352 -0.890384 -0.927124 -0.469218 -0.0949122 0.902323 -0.543611 -0.0507174 -0.587241 0.803046 0.231855 0.656973 0.557459 -0.201674 -0.914731 0.958693 0.714496 -0.0996834 -0.0319431 0.453982 -0.292244 0.0124318 0.455222 -0.913369 0.868494 0.698554 -0.491726 0.358931 0.210775 0.877198 0.214413 -0.934151 0.972624 -0.35093 -0.122638 0.976681 0.392161 0.579656 1.21387 0.76064 1.05168 -0.510622 -0.996678 0.679508 -0.406935 0.362364 -0.232293 -0.359356 1.07533 0.303287 -0.430259 0.790343 -0.550272 0.918334 0.200449 -0.0867846 -0.599732 -0.0532596 0.313488 0.223352 -0.526935 -0.113833 1.18462 0.600299 0.702442 1.58853 1.11774 1.11056 0.0231713 0.49899 -0.439995 -0.688475 0.0683885 1.31992 0.484574 1.09972 -0.162458 0.804972 0.191713 -0.817514 -0.428877 -0.0738029 0.0962647 0.639791 -0.0165033 0.175608 -0.288879 -0.369725 -0.0113516 -0.481354 1.0916 1.92306 1.4489 1.19649 1.07585 1.84345 1.14388 -0.331763 1.05857 -0.194362 0.514291 0.253331 0.607525 0.810318 0.256366 -0.0985776 -0.391054 -0.0766161 -0.791139 -0.86645 0.635145 0.672776 0.383995 -0.864588 -0.026372 1.03002 -0.680984 0.234006 1.58558 1.1245 1.49949 0.669102 1.16253 0.44786 -0.750652 0.0592709 0.500693 0.578705 1.52817 0.379251 1.52912 0.331445 0.665478 -0.61728 0.911572 0.26341 0.00405061 0.104874 -0.579876 0.936844 0.407166 -0.07238 -0.389304 0.186664 -0.989392 0.382511 -0.719049 -0.436045 1.68081 1.32197 0.667885 1.33638 0.243141 0.0839754 0.950879 -0.314412 0.160728 1.51767 0.245161 -0.497488 -0.706433 0.348858 0.866841 0.852375 0.345022 -0.399301 -0.294593 0.0974645 -0.232732 0.200196 0.166486 0.33456 0.301569 -0.0194068 -0.748109 -0.323159 0.576326 0.445179 1.56672 0.00960253 -0.0384414 0.00801552 0.54062 0.342083 1.02838 -0.703442 -0.251938 -0.450872 -0.853572 0.0967874 0.514234 -0.693794 0.954603 0.942828 0.981025 -0.195944 -0.483765 0.0944359 1.03793 0.384602 -1.10675 0.758658 -0.73615 1.39684 1.89158 0.448347 1.47724 0.0499306 0.0984712 1.69665 1.64265 0.773472 0.343784 -0.568626 -0.877234 -0.949319 -0.312542 1.09352 -0.340983 -0.90601 0.222517 0.335206 0.375735 0.762105 0.289347 0.102545 -0.928987 0.719284 0.869171 -0.167843 -0.377066 0.51538 1.53299 0.766139 1.37381 2.03094 1.66816 1.52833 1.0401 -0.119318 -0.29014 0.043037 -0.627324 -1.10494 -0.814295 1.08331 -0.387664 0.351918 -0.813372 0.395016 0.442292 0.481753 -0.0613696 -0.0632222 -0.907078 -0.86526 0.360892 -0.601232 1.17193 0.106726 0.0645939 -0.238244 0.82955 2.71957 1.47436 1.3401 0.381857 -0.0737667 -2.38095 -0.765986 -1.7283 -1.26932 -0.631822 -0.533397 0.592004 -0.768988 -0.723216 -0.769691 0.636451 1.0172 0.348688 1.16181 -1.04822 -0.195727 -0.226127 -0.733817 -0.200791 1.23823 0.767419 0.269354 2.53148 2.46749 1.77809 1.63026 -0.722681 -0.914264 -1.4346 -1.74276 -1.73636 -0.638906 -1.36511 0.214488 -0.243954 -0.381436 -0.99084 0.080992 -0.587859 1.34635 -0.190072 0.984021 -1.07955 -0.650634 -1.12708 -0.958369 -0.52452 0.666675 1.12229 -0.0105181 1.43696 1.7177 2.40546 0.260197 -1.44286 -3.15738 -1.75997 -0.794367 -1.15117 -1.19619 -0.0706665 0.165255 0.751561 0.262442 -0.441378 0.0679486 1.09074 0.961424 1.28544 0.723189 0.416303 -0.939573 -0.589063 -0.416315 0.570958 1.20703 1.20954 -0.134009 1.38504 0.0424823 0.251123 -1.52521 -3.09796 -1.36036 -0.856407 -1.14951 -0.522082 -0.408304 -0.954857 0.15611 -0.372599 -0.885476 -0.0503406 0.505329 -0.229373 0.156421 -0.341564 0.238251 0.469673 0.169776 -0.39944 -0.923195 0.221814 1.48586 1.16954 -0.422862 0.42284 1.17676 -1.87939 -3.13977 -2.51705 -2.39171 -0.141611 -1.08168 -0.837974 -0.813658 0.146944 -1.3294 0.051936 0.490317 -0.559093 0.592165 1.23478 0.00399072 0.818334 -0.950898 0.161942 0.997774 -0.266088 -0.935497 -0.444989 1.18615 0.940919 0.182575 1.21104 0.905611 -1.71082 -2.79128 -3.17163 0.0851074 -0.889098 -0.233528 -0.131297 -0.110628 0.705489 -1.26603 -0.397575 -0.577291 -0.963314 0.0844506 -0.399862 -0.00354096 -0.129528 -0.00730135 -0.659418 -0.166669 -0.947319 -0.365933 0.0757286 0.555468 -0.194861 -0.370707 1.13376 -1.15517 -1.65262 -2.52332 -1.25209 -0.384918 -0.522766 -0.730258 -1.12869 -0.753945 -0.96707 0.0468791 0.528302 0.55164 0.235644 -0.171128 0.78777 0.984568 -0.2689 1.26953 0.00203683 -0.427982 0.537507 -1.23451 0.243569 1.0087 0.637784 0.92802 0.744264 -0.872867 -0.594592 -2.41558 -1.80806 -0.184322 0.941355 0.393476 0.370139 0.500331 -0.473106 0.215648 0.147684 -0.0693455 -0.613404 0.565729 0.623592 0.851084 1.03044 0.316586 0.628279 -0.287394 0.494184 -1.19923 0.830852 0.100614 0.0787001 0.801679 -0.360185 -0.465677 -2.29051 -1.80545 0.179371 0.636703 -0.154191 -0.0842298 -0.546055 0.335128 -0.0986082 -1.25555 0.801768 -0.941556 -0.11222 0.0463634 -0.542881 -0.168114 -0.0164282 0.946386 1.4733 -0.145184 -0.268276 -0.287205 0.0732126 0.567545 0.578901 0.840964 0.4616 -0.429262 -1.94881 -1.6939 -1.51069 -0.0358759 -0.755877 0.21488 -1.22217 -1.03361 0.458363 0.837385 0.118018 0.530292 -0.32441 -0.4818 -0.685875 -0.691927 0.201016 -0.78771 -0.30754 -0.376139 0.723308 -0.645523 0.653035 0.428642 0.289921 -0.0220253 -0.362225 -0.566816 -0.790069 -1.15461 -1.41965 -0.571006 -0.54508 -0.823846 -0.248212 0.599825 0.0423117 -0.8704 -0.338971 0.84717 0.756093 -0.500986 0.930427 0.155743 -0.894914 -0.438861 0.0412837 0.579401 0.382961 0.622605 1.32135 0.279104 -0.0678885 0.735994 0.0532317 -0.612369 -0.852519 0.265427 -0.152288 0.596104 -0.759007 0.474593 0.0560631 -0.939947 -0.745773 0.114168 0.784926 0.769388 -0.972874 0.43097 -0.948603 0.631035 0.453269 0.503087 0.429347 -0.271642 -0.71663 0.924751 0.485592 0.695651 0.306028 -0.883553 -0.997114 0.0970889 -0.360868 -0.0599223 -0.549673 -0.62743 0.393645 0.204028 -0.629953 -0.861128 0.328121 -0.0663818 0.970052 -0.0984132 0.867472 0.752064 -0.356874 1.22514 -0.533597 1.44175 1.13545 0.456053 0.064216 0.900173 0.912794 -0.432208 -0.242891 0.351805 -1.40572 -0.267918 0.157432 -1.17835 0.507027 -0.208857 -1.26975 -0.146668 0.4787 -0.361561 -0.671257 0.946646 0.400772 0.53548 -0.638475 0.577442 0.0404741 -0.175337 -0.0723507 -0.230663 0.705124 0.378517 -0.0706264 -0.0891394 0.158914 0.601123 -1.15654 0.13642 -0.43598 -0.685341 -0.180938 -0.0270878 -0.428261 -0.881207 -0.846205 -0.082462 -0.131119 0.0754554 0.252394 -0.139429 0.183964 0.883039 -0.609383 0.820507 -0.789284 1.12679 -0.469636 1.09062 0.119021 0.709879 -0.725307 -0.217374 -0.655536 0.60702 0.493777 -0.254027 0.549106 -0.0901046 -0.409378 -1.13845 0.336299 -0.611485 -0.773099 0.553025 0.777276 0.718419 0.827482 0.540942 -0.459782 -0.516124 0.6909 -0.882019 0.791378 0.0318459 -0.892392 -0.346028 0.906503 0.710061 -0.492119 0.0544861 1.02081 -0.275912 -0.54729 -0.687142 -0.448093 0.0480195 0.199358 0.705751 -0.92627 0.518466 0.575241 0.215647 0.561579 0.861899 -0.679381 -0.760822 0.572805 0.835489 -0.0937989 0.0936691 -0.621275 0.121812 -0.113646 0.634323 0.955426 -0.857406 -0.0338111 -0.0390259 0.784631 -0.974286 0.626643 0.384343 0.465264 0.728942 -0.975934 0.665558 0.46137 0.868608 0.0653564 -0.533438 0.599227 0.671492 -0.821072 0.772414 -0.355562 0 -0.199563 -0.591565 -0.345866 0.51336 -0.0735971 0.184488 0.151364 -0.545384 -0.650363 -0.840612 -0.982196 0.0721817 -0.784197 0.612158 -0.152204 -0.835105 0.41952 -0.895785 0.818984 -0.0537519 -0.546207 -0.690809 -0.952832 0.390052 0.994203 0.796255 0.0839238 -0.242094 0.683469 -0.377475 0.0112421 0.611808 -0.440454 0.677878 0.310084 0.595851 -0.658776 0.77596 0.665378 0.307517 0.798251 0.861643 0.902499 0.238872 -0.663846 -0.158626 -0.233923 0.839705 -0.504579 -0.089447 0.0993019 0.83855 -1.00137 -0.997227 0.427297 0.282755 -0.156855 -0.401816 0.264092 -0.768672 -0.504303 -0.704581 -0.264908 -0.402412 0.248812 -0.820825 -0.738005 -0.330181 -0.133945 0.202724 -0.891879 -0.0465555 0.451163 -0.647547 0.0351149 -0.716574 -1.18734 0.100637 0.516019 -0.934893 0.555751 -0.330691 -0.386966 -0.321726 -0.139139 -0.0675263 0.0554095 -0.618239 0.116279 0.374644 0.214446 0.589427 -0.179826 -0.118531 -0.249865 -0.00429452 -0.773272 0.39523 -0.128336 -0.772535 -1.09928 -0.244325 -1.01792 -0.994617 -1.75429 -2.2931 -1.56849 -0.39732 -0.697041 -1.31256 -0.932008 -0.247785 -0.329602 -0.0507812 -0.844121 0.635887 -0.822433 -0.682609 -0.960496 0.38362 -0.794446 0.980043 0.276216 -0.436333 0.0507112 0.466845 -0.616613 0.58672 -0.877864 0.109006 -1.98054 -0.925518 -2.21977 -0.911789 -2.07557 -1.83755 -1.67543 -0.967986 0.240658 0.20105 -0.953803 -0.934216 0.312507 0.299696 0.704486 -0.0879514 -0.121199 -0.635238 0.0625526 1.37964 -0.452036 1.01279 0.759045 -0.33045 -0.80674 -0.0824326 -0.000498279 -0.741229 -1.19706 -1.98843 -0.920373 -2.18046 -1.53048 -1.75733 -0.9283 0.355426 -0.523793 -0.383504 -0.814341 0.374569 0.713915 0.490567 -0.947454 -0.638553 -1.16113 -0.576676 -0.262175 -0.410584 -0.416091 0.743973 0.970465 0.409766 0.938984 -0.124773 0.414658 0.538957 -2.25665 -1.92115 -1.2378 -1.14248 -1.69838 -0.150158 -1.09016 -0.72615 0.66324 -0.768225 -0.03789 0.189051 -0.893071 -0.351735 0.0962697 -1.14896 0.485211 -0.12683 0.0818934 0.150777 0.641614 -0.143926 -1.01505 -0.451498 1.05564 0.147532 -0.271395 -0.0599069 -1.54895 -2.05298 -1.75308 -1.45193 -1.47996 -1.46808 -1.08653 -0.10102 -0.539693 0.734923 -0.962132 0.528979 -0.0252579 -0.805704 -0.59679 -0.804668 -0.218992 -0.491807 0.43845 0.588681 0.211613 -1.26202 -0.754162 -0.270122 -0.0540638 -0.097298 -0.128104 -0.106071 -0.318146 -1.43971 -1.4061 -1.14835 -1.04062 -1.03506 -1.17395 0.773165 -0.23892 0.983364 0.542384 0.865685 -0.944205 0.482252 -0.116725 -0.737401 -0.458044 -0.606215 -1.18097 -1.37067 -0.622485 -0.831161 -0.541478 -0.775933 -1.04806 -0.0868509 -1.29782 -0.791203 -0.570824 -0.468423 -0.945987 -2.2093 -0.69053 -1.42692 -1.15563 0.571074 0.939742 -0.795122 -0.409737 0.679191 0.941947 -0.638946 0.00877996 0.635157 -0.27423 -0.711265 -0.509699 -0.0354508 -1.21403 -0.947026 -1.12301 -0.786683 -0.681671 -1.22773 -0.181163 -0.508998 -0.962015 -1.70804 -1.01281 -1.25816 -0.167413 -0.348637 0.0140209 -0.493625 0.583866 0.330436 -0.790892 0.380973 0.205593 -0.111832 0.501233 -0.79238 0.464814 -0.464408 0.267559 -0.471898 -0.214568 -1.22336 -1.69832 -1.5855 -0.985303 -1.07945 1.06939 -0.264088 -0.245819 0.815412 -0.449378 -0.412454 -0.804552 -0.0305437 -0.141706 1.27809 0.970289 -0.788172 -0.686978 0.635779 0.892722 0.442809 -0.620294 -0.0801907 0.128244 -0.383513 0.0851119 0.205528 0.222996 -0.450489 0.521798 -0.957583 0.942179 -0.437521 0.731233 1.18088 2.53176 1.21342 0.197457 0.7714 0.00878716 0.901542 0.281096 -0.00616031 -0.17582 -0.516497 0.123951 0.316965 -0.989367 0.153276 0.270032 0.121853 -0.994912 0.462524 -0.738046 -0.0709786 -0.710288 -1.51727 -0.139943 -0.168931 0.771266 0.950509 0.278378 1.35663 1.59944 1.13781 0.708599 -0.159129 -0.121415 0.385472 0.986408 1.28641 0.0250852 -0.10556 0.560942 0.709973 -0.513951 0.0557494 -0.505703 -0.224258 0.474636 -0.10051 -0.691428 -0.780067 0.19462 -0.216099 0.926737 1.24743 0.900017 0.173536 0.676622 1.34177 0.521432 0.953788 0.881195 0.515184 -0.738739 -0.188713 0.939227 1.17292 0.457002 -0.828166 -0.0815478 -0.576352 0.761083 -0.87148 -0.0697183 0.0911878 -0.236506 -0.928929 -0.0164458 -0.0746636 -0.280582 -0.362023 -0.337391 -0.490099 0.469074 0.276755 0.168457 0.216554 1.22441 -0.403654 -0.459164 0.976091 -0.147657 -0.254179 0.261978 0.34017 0.32233 -0.564618 0.794963 -0.774728 0.744695 0.209716 -0.514349 0.173473 -0.919548 -0.90346 -0.183601 0.573165 1.36366 0.539523 0.288202 0.402561 0.6614 0.383648 0.611834 0.0401734 0.201582 -0.428516 0.315182 0.503953 0.84871 0.182791 -0.228937 1.5342 0.736633 0.250421 -0.169525 0.0144721 -0.614048 -0.00226122 -0.338474 0.37573 -0.216652 -0.156436 0.0822347 0.168037 0.723002 0.354445 0.373059 -0.0523646 -0.317177 0.345168 -0.0622588 1.36135 0.48859 0.626912 -0.667294 0.220362 0.524577 1.35692 0.941417 0.485239 0.0221321 0.414184 -0.634899 0.144219 0.660293 -0.566149 -0.0484838 -0.284788 -1.74156 -0.568919 0.534319 0.231398 1.19186 1.68635 0.754891 -0.0127536 0.595327 0.252486 1.40591 0.929113 0.0372674 0.384051 -0.738588 0.204253 -0.508567 -1.24652 0.603057 1.12872 0.703398 -0.236945 0.976461 0.863389 0.867181 -0.748596 0.797473 -1.11465 0.433801 -0.587818 0.558244 0.458103 1.00677 1.52644 1.34547 1.05721 1.50123 -0.188942 0.424301 -0.889914 -0.649337 0.456637 -0.321033 0.609891 0.172361 0.522306 0.736252 1.20843 0.735359 0.87099 -0.824138 0.236621 0.940499 0.430841 0.79286 0.933788 -0.0768517 0.300766 1.38176 -0.163763 1.04913 1.17633 1.20089 -0.326111 -0.0373733 0.749447 -0.19478 -1.0557 -0.477251 -0.736038 -0.529479 0.479089 -1.03023 0.108122 -0.206064 0.896969 0.212018 -0.072585 0.133027 0.796186 -0.990273 -0.846837 1.28104 0.480911 0.0149548 -0.307754 0.395885 -0.706209 0.126551 0.792422 1.11356 0.596298 -0.597988 0.566171 -0.115311 -0.917825 -0.186079 -1.53064 0.409885 0.339392 0.0774983 0.60518 1.0726 -0.17226 0.0673251 -0.591892 0.96648 -0.415673 -0.0820997 0.409476 1.13222 1.26384 0.159505 0.731796 1.13103 0.90692 -0.226638 0.395275 0.444281 -0.762369 -0.588115 -0.92445 -0.616077 -0.454623 -1.5055 -1.24657 -0.505281 -0.49136 0.542245 0.833725 -0.32427 1.02031 -0.157975 -0.769654 -0.14297 0.906303 0.678478 0.879141 0.26836 0.519629 -0.424841 0.660046 0.234729 0.317694 0.370582 0.265046 0.263392 0.781984 -0.896468 0.414495 0.154121 -1.11624 -1.41051 0.286236 0.329472 -0.882999 -0.196434 -0.956061 -0.104118 0.149784 -0.281005 -0.306568 0.644134 0.98505 -0.805823 -0.939932 0.137665 -0.283488 0.932029 -0.788774 0.288031 0.141426 -0.863149 -0.553728 -0.0391715 -0.275768 -0.916589 0.112457 -0.282245 -0.652009 -0.0386104 -0.566663 -0.301558 -0.292594 0.0219341 -0.470114 -0.159225 -0.0817632 0.49165 0.903479 0.36736 0.754898 -0.662157 0.00525913 -0.836068 -0.0966061 0.490453 -0.586297 0.28777 0.272533 -0.454609 0.179855 0.281872 -0.0936448 0.580352 -0.463627 -0.0756629 0.273827 -1.1838 -0.428711 0.548893 -0.187687 -0.725568 -0.326256 -0.246602 -0.30718 0.0043591 -0.953118 0.360252 0.789552 0.750127 0.0139204 0.46699 -0.258602 0.626244 -0.996807 0.581773 -0.109161 -0.705225 0.158245 -0.664937 0.515839 0.914671 0.838032 -0.263623 -0.709039 -0.164848 -0.474277 0.321306 0.26012 -0.704678 0.0529776 0.318415 -0.909147 1.00471 0.403741 -0.150781 -0.221359 -0.242667 -0.640134 -0.158363 -0.826722 0.526781 0.169042 -0.977391 -0.0870502 -0.0109864 -0.314798 -0.804247 0.961228 0.158119 -0.921215 0.646541 -0.197558 0.335081 -0.292817 0.897479 -0.560443 0.817117 0.373532 0.505364 0.546333 0.34523 0.893427 0 -0.428111 0.0983289 0.557578 -0.395233 0.420472 0.240936 0.939046 -0.783263 0.469357 0.206217 0.985891 -0.763618 0.00328924 0.828149 -0.193532 0.553487 0.0360783 -0.470497 -0.784302 0.564203 -0.727158 -0.221419 -0.763224 0.499674 0.0307741 0.465479 -0.719083 -0.228162 -0.378254 0.953685 0.131197 -0.179087 -0.593925 0.226356 0.377806 0.238284 0.756085 -0.348594 0.442826 -0.247465 0.760808 -0.73625 0.770438 0.361342 0.523774 -0.248465 0.236177 -1.073 0.551423 0.879963 0.727705 -0.69296 0.733342 0.836531 0.120875 0.586951 0.802779 -0.2554 -0.57941 0.270556 -0.395058 -0.0418117 -1.0295 0.485455 -0.113399 0.981141 -0.664998 -0.00523894 0.556144 -0.663428 0.525929 -0.505584 -0.0310521 0.558392 0.0232505 -0.850375 -0.898332 0.219999 0.211852 0.812549 -0.554229 0.466775 0.382072 0.589039 0.985632 -0.261288 0.981422 0.521717 0.0121943 -0.369891 -0.56801 0.201787 0.547102 -0.308833 -0.672002 0.996418 0.00573938 -0.290986 -0.26316 0.818886 -0.750712 -0.0795612 -1.61448 -1.62958 -1.64498 -0.537916 -0.107219 -0.309617 0.364935 -0.49157 0.630971 -0.919573 -0.104964 0.00616169 0.661896 0.388319 -0.405804 0.75623 -0.153873 -0.178065 0.728203 0.14641 0.310519 0.125656 0.397529 1.74 1.5708 0.662562 0.0780903 0.929491 1.0661 -1.33715 0.0933864 -1.64016 -0.932403 -0.467516 -0.424178 -0.823839 0.261398 0.577225 0.0868647 -0.91354 0.502551 -0.585665 -0.517903 -0.501875 -1.17312 -0.626226 0.572782 1.09054 0.587818 0.0451844 0.114442 1.08041 0.837967 0.873921 -0.248245 0.994995 0.518007 -1.07896 -0.697769 -0.440767 -1.55101 -0.550411 -1.03305 0.14884 -0.175513 -0.00963339 0.102937 0.0988066 0.360093 -0.134187 -0.121424 -0.342313 0.288621 -0.0820629 0.35194 0.392648 -0.169421 1.03221 0.108398 0.215186 1.48867 0.362928 0.343943 0.723442 0.120548 -0.418055 -0.249198 -0.912176 -0.207201 0.225129 -0.875754 1.06766 -0.640044 0.180729 0.187854 -0.397848 -0.154046 1.00675 -1.14552 -0.362375 -1.15006 -1.26958 0.0261371 -0.0717378 0.918335 0.980237 0.741043 1.17863 1.06616 0.345762 -0.0495531 -0.538951 -0.718205 -0.0103721 -1.41533 -0.795333 -1.10351 -0.447593 -0.366631 0.857637 1.189 -0.288369 0.449769 0.371855 0.933229 -0.595433 0.257084 0.139568 -0.541054 0.0144956 -0.696358 0.778537 0.218501 1.40724 0.357467 1.79182 1.77307 0.188399 -0.493714 0.460184 -0.463856 -1.63476 -0.071048 -0.838566 0.195492 -0.489291 0.0728758 -0.127097 0.434404 0.629977 -0.0412362 0.413695 -0.916985 -0.694466 -0.521185 0.122584 -0.867088 0.0142008 0.0762611 0.546151 0.625611 0.164456 1.18206 0.145198 0.540163 0.636358 -0.272685 -1.05403 -0.203351 -1.07686 -0.747507 -0.0372143 -0.299534 0.468904 0.436777 -0.866888 0.531241 -0.948052 -0.403494 -0.840818 0.741181 0.893918 0.0954411 0.719631 -0.0151828 0.000987919 1.0668 0.092761 0.127615 0.54733 0.93981 1.15148 0.363352 -0.545725 0.138418 0.412216 -0.371519 -0.585048 -1.89058 -0.670395 -0.978725 1.01932 0.054211 -0.237777 -1.3452 -0.0556253 -0.779154 0.214453 -0.374513 0.795029 -0.493912 -0.35572 0.384723 1.12872 0.431101 0.123869 -0.795857 0.134146 -0.041204 0.558923 -0.567673 -0.504794 1.01714 -0.443163 -0.348656 -0.56778 -1.64752 -1.56771 -0.772282 -0.304831 -0.507113 -0.156612 -0.61081 -0.475501 0.295566 0.149471 0.676793 -0.188691 -0.0690042 -0.271008 -0.747385 0.717215 0.245611 -0.107417 0.347446 1.08849 0.6529 -0.77742 -0.990288 0.451758 -0.192639 1.29701 0.0674047 -0.280841 -0.838331 -0.91464 -0.0342671 0.115114 -1.35453 -0.736984 -0.2308 0.508561 -0.459941 0.157088 -0.296791 0.818796 0.99133 0.288548 0.494091 0.452692 0.541115 0.0276368 0.58149 1.35872 1.72774 1.22948 0.577445 -0.495292 2.55146 1.58974 0.0576917 -0.71988 -2.00546 -1.7119 -0.64352 0.159655 0.906761 -0.212041 -1.07709 0.2724 0.0116162 -0.0665349 -0.504669 -0.211768 -0.74678 -1.17953 -0.0036983 -0.459316 -0.372682 -0.914296 -0.368952 1.72717 0.875168 0.0934436 1.32867 0.76058 2.36933 1.51609 -0.313185 -1.77668 -1.86834 -1.59537 0.636208 0.658308 0.24136 -1.07605 0.240198 -0.72585 -0.874696 0.828741 -0.07688 0.98333 0.333508 -0.820698 -0.196799 0.145645 -0.249654 -0.733265 -0.672519 0.559141 0.400316 2.06203 1.02925 0.646121 2.14863 1.35563 -1.71417 -1.63882 -2.58864 -0.30016 0.438567 -0.061255 0.47028 -0.821012 -0.3543 0.819431 0.120933 0.0148882 0.0502496 0.278139 -1.03634 -0.9651 -0.00893629 -0.49179 0.0328231 -0.620196 0.494537 -0.0374511 -0.243672 1.24384 0.645703 1.85738 1.84612 -1.64069 -2.37346 -3.06124 -2.20961 -1.18465 0.623084 -0.241902 0.428237 -0.709269 0.437202 -0.278613 -0.179004 -0.391976 -0.848564 -0.13092 -0.192267 -0.138372 0.301933 0.402359 1.06758 0.691089 -0.318073 0.635813 1.09172 0.605591 0.809148 1.35933 0.737103 -1.28222 -2.66028 -2.26952 -0.400911 -0.51527 -0.0462333 0.648111 0.681167 -0.261687 -0.244251 -0.970755 0.693968 0.995576 0.904907 1.04829 0.190516 0.848609 0.123155 0.0184411 0.324924 -0.123316 0.600415 -0.0926851 0.871944 0.341169 0.985297 1.0903 -0.983605 -3.42763 -3.61122 -2.78788 0.149634 -0.111236 0.352905 0.941473 -0.494369 -0.232317 0.0437628 -0.814466 0.762964 -0.61789 -0.161231 -0.494398 0.537872 0.137478 1.01154 1.25778 0.485378 -0.485606 0.307021 1.46591 1.12344 0.665993 1.67573 0.475249 -1.30905 -3.62444 -2.47828 -1.70013 -0.894003 0.497502 -0.565539 0.0582489 0.376621 -0.189748 -0.362284 0.521038 0.832114 0.0989842 0.953976 -0.75827 0.611994 0.704717 -0.992157 0.432458 -1.02002 0.149729 0.954541 0.496172 0.811037 1.10939 1.01908 -0.782309 -1.27098 -2.36518 -2.80601 -1.32543 -0.177577 -0.993573 -1.40122 0.500214 0.000192873 0.680568 0.97941 -0.484371 -0.664333 0.100673 -0.297392 -0.201066 -0.329681 -0.528567 0.771464 0.910013 -0.66067 0.426991 0.716539 -0.0426548 1.45535 -0.128107 -0.876386 -1.38736 -2.06588 -2.81353 -2.51652 -0.603377 0.69086 -0.970732 -1.35659 0.0943619 -1.09829 1.00482 0.332692 0.175825 0.570946 0.0990125 -0.630179 0.0992593 0.561054 0.612277 0.0217524 -0.48574 0.538664 -0.891332 -0.271071 0.594039 0.0678305 1.42616 -0.0380619 -1.59068 -0.850997 -1.9315 -2.40174 -1.78161 -0.873188 -0.396691 -1.1156 -1.32378 -0.0286047 1.40139 0.783612 0.285654 -0.709388 0.573608 0.50894 0.098476 0.787734 1.02769 0.340512 -0.21526 -0.669883 0.0812748 0.937025 1.53993 0.424563 -0.0787578 -1.08551 -1.58685 -1.20275 -2.07166 -1.43873 -0.935652 -1.6815 -0.71237 -0.308424 -0.353841 -0.0219296 -0.348527 1.15581 -0.855094 -0.315141 -0.166364 0.788674 -0.210883 -0.623745 1.2142 0.585856 -0.0754498 0.780503 0.297006 1.58229 0.342123 0.751231 0.198037 -0.811454 -1.35467 -2.0402 -0.684667 -1.23534 -1.79332 -1.1028 -0.238982 0.518408 0.795821 0.0847244 -0.206206 0.535665 0.336877 0.551083 -0.903463 -0.53552 -0.199923 0.568897 -1.15435 0.468229 0.585642 -0.151269 -0.133535 1.03925 0.853225 0.748886 0.247442 -0.409571 -0.00787802 -1.24537 -1.15676 -0.537216 -0.815927 -0.441409 0.253744 0.912213 -0.545816 -0.312488 -0.200916 0.405431 -0.0160616 -0.993537 0.0457011 0.461334 -0.925979 -0.850257 -0.355247 -0.387122 0.0927593 0.930963 -0.743385 0.695653 -0.468951 0.677676 -0.509366 -0.302592 0.616719 -0.899098 0.12157 -0.813723 -0.679904 0.50718 0.588453 0.0581766 0.590855 -0.303511 -0.268878 0.817557 -0.939273 -0.81924 0.465506 -0.906348 0.000331283 -0.686363 0.709931 0.713874 -0.140087 0.539292 -0.0719886 -0.309546 0.386583 -0.256129 -0.0465099 0.854741 0.832767 -0.295786 -0.820014 -0.581554 0.503468 -0.00593567 0.493767 0.169335 0.877241 -0.267983 0.948842 -0.242474 -0.0710967 0 -0.811187 -0.747245 0.909983 -0.219763 0.284212 -0.917538 0.704312 -0.466925 -0.756099 -0.00714349 0.515925 -0.221131 -0.300832 0.0722484 0.905377 0.686113 0.127067 -0.259739 -0.27561 -0.248919 -0.0827312 -0.0725658 0.636448 0.843441 -0.954177 -0.523311 -0.747311 -0.775611 0.928536 -0.0358035 -0.395084 0.235448 -0.677804 0.810849 -0.765387 -0.186709 -0.479562 -0.742047 0.301531 0.234944 -0.386385 0.987294 0.859817 -0.95545 0.0363115 0.547799 0.879153 -0.733722 1.01298 0.291666 0.544772 0.584967 0.366284 0.173782 -0.160074 -0.331321 -0.193031 -0.644098 0.302256 -0.965924 -0.26729 0.230604 -0.896574 0.249099 -0.010438 0.501619 0.61349 -0.0150472 -0.0220918 0.17337 0.247309 -0.48077 0.241455 0.832419 -0.706869 -0.625069 -0.0846723 -0.378718 0.424512 0.20455 -0.158155 -0.05942 -0.559735 -0.375862 0.793937 -0.133951 0.538882 0.504764 -0.794382 0.00960458 0.0790052 0.383379 0.96205 1.08159 -0.468198 -0.54093 0.0851809 -0.802167 0.128064 -0.387908 1.04201 -0.169981 0.729181 1.00912 -0.495919 0.602822 1.04652 0.424345 0.919473 0.0457117 0.155875 0.625141 -0.134207 -0.664743 0.905992 0.260955 -0.0728557 -0.581271 0.575157 0.257925 -0.3786 0.252995 -0.253658 -0.428044 -0.817973 -0.321383 0.395065 -0.357135 0.894616 0.606114 0.304485 1.08178 0.383902 0.868769 0.900546 1.33742 0.342267 1.22668 -0.327536 -0.69509 -0.910492 -0.152469 -0.862153 0.43829 0.158783 -0.292538 0.668686 -0.766334 -0.0778916 -0.501113 0.299811 -0.632419 -0.651264 -0.982662 0.421907 0.336383 0.78763 -0.460054 0.781869 -0.00876591 1.0807 0.501857 0.731956 -0.592184 1.29801 1.46499 0.350481 0.523888 0.912838 -0.908893 -0.271233 0.254744 -0.478201 -0.107675 -0.598177 0.125625 -1.29206 -1.60816 -0.490115 -0.293564 -0.164426 -0.692042 -0.998785 -0.292332 -0.891802 0.689431 -0.576624 0.646206 -0.356244 -0.780622 0.737175 -0.274619 -0.80688 -0.102487 0.955926 -0.0607096 0.55558 -0.772052 -0.91967 0.675157 -0.595825 0.537264 0.793973 -0.0622494 -0.410812 0.21704 0.406524 -0.733674 -0.226561 -1.3896 0.312875 -1.00599 -0.0156085 -0.465889 1.05 0.652769 -0.625295 -0.599203 0.423007 -0.385422 -0.480596 1.04247 -0.534805 0.45162 0.915915 -0.862095 0.445793 -1.16629 -0.100215 -0.185389 -0.942923 0.0196836 0.703155 0.6232 0.625996 -0.358539 -1.35005 -1.68856 -0.317083 0.0223817 0.74903 -0.880193 1.49408 0.787057 -0.443465 0.595769 0.399043 0.482223 0.928192 0.607554 0.156898 0.677014 0.202322 0.0690662 0.368398 -0.943222 -0.433348 0.489114 -0.466404 -0.382194 0.27979 -0.988317 -0.352314 -1.5521 -1.41189 -0.335786 -0.59422 -0.62031 0.421719 0.629173 -0.355676 0.219712 -0.335386 -0.288619 -0.228737 0.0790219 -0.205592 -0.542408 -0.424047 0.246324 0.787537 0.675783 0.763055 -0.834442 -0.386346 -0.447206 -1.00603 0.160868 0.382501 -0.715329 0.282137 -0.10009 0.0158191 0.547094 -0.4826 0.104954 -0.258207 0.176592 0.958418 0.20814 0.0966009 0.674679 0.0609541 0.932845 1.2097 0.0563511 -0.672233 0.268431 -0.925831 0.365912 -0.944312 -0.0392719 -0.907942 -0.797985 -0.770213 0.785194 0.403177 0.442015 0.495248 0.629186 0.0286443 -1.05605 -0.706433 -0.399376 -1.15152 -0.912131 0.32332 0.163655 0.240916 0.232175 0.625109 -0.183396 0.818758 0.689872 -0.259588 0.900249 -0.186017 -0.799354 0.665109 -0.390892 -1.08015 -0.0447039 0.268682 -0.755451 0.837496 0.429129 0.117278 -1.06305 -1.0075 -1.41471 -1.3209 -1.02758 -0.327513 -0.500057 0.082393 -1.17826 0.247007 0.410828 -1.04185 -0.242356 -0.972566 -0.48788 -0.223465 -0.472751 9.95397e-05 -0.454843 0.422142 -0.437649 -0.384145 -1.44221 -0.24943 -0.385761 0.619578 -0.705975 -2.15007 -2.55536 -2.56204 -2.34428 -1.1577 -0.733512 -0.952341 -0.389525 0.159141 -0.0225033 0.28162 0.276825 -0.492806 -0.552356 0.493243 0.339529 1.09696 0.403834 -0.477618 -0.782091 0.518937 -0.698094 -1.69637 -1.76473 -0.311992 -1.6244 -1.87992 -2.06741 -4.02231 -3.99123 -2.64769 -1.96145 -1.48759 -1.25523 -0.862323 -1.86764 -0.0944378 -1.264 -0.901952 -0.389607 1.48233 1.10369 1.01316 0.311257 0.179414 -0.779408 0.214977 0.34152 -0.521366 -1.37995 -0.653559 -1.75997 -1.65959 -1.26342 -2.35959 -3.71134 -4.15748 -3.32384 -1.42336 -0.368982 -0.440884 -0.669821 -0.488321 -0.825288 -0.23632 -1.39418 0.309169 0.387299 0.60987 0.564831 0.0249052 0.413464 1.46131 0.932709 -0.303084 -0.50019 -0.263551 -0.873799 -2.53988 -1.86593 -2.85297 -1.49756 -1.85175 -1.03606 -0.997169 0.118841 0.228978 0.0694416 0.857403 1.12694 0.0818984 -0.0864958 -1.33475 0.417902 -0.779771 0.246466 -0.0677669 -0.15432 0.208117 0.341814 0.0196618 0.881356 -0.942692 0.909487 -1.0887 -0.183271 -1.55018 -0.68676 -1.61983 -0.282984 -0.744888 -0.676679 0.503963 1.18767 1.82518 1.20503 1.21658 1.82638 1.01025 1.09761 -0.937168 -0.807806 -0.621314 1.23412 -0.514562 0.522095 0.317269 1.18268 -0.84223 -0.613248 -0.130283 -0.494695 -0.0682235 -1.73354 -1.05763 -1.02087 -0.825435 -0.914254 -0.10694 -0.368841 0.733793 1.26648 1.22075 1.41289 0.953428 1.29884 -0.283986 0.478464 -0.417457 -0.600499 0.462896 1.09646 -0.0225054 0.0189194 0.272983 0.20016 0.325323 0.0139717 0.14926 0.99129 -0.8173 -1.65103 -0.783672 -1.36064 -1.29529 -0.470673 0.0720218 -0.0952566 1.62669 2.44023 0.792864 1.09035 1.01138 1.19538 1.19454 -0.283282 0.516991 0.251446 0.0425769 -0.0191746 0.559269 0.302627 -0.223969 0.0297845 0.299519 -0.377832 0.810106 0.908176 0.57799 -0.694537 -0.0660046 -0.54536 -1.2019 0.31562 0.910448 1.30058 1.31882 0.0375423 0.105138 0.50843 1.5906 -0.427763 -0.583384 -0.659276 0.248289 -0.551045 -0.439817 -0.58799 0.183415 -0.206545 0.838232 0.632517 -0.715282 -0.510087 0.746902 0.164406 0.564371 -1.1082 -1.44182 0.0872874 0.200891 0.470562 -0.0153092 0.979371 0.617952 -0.00879041 1.68629 1.53668 0.937103 0.161755 -0.167195 -0.772757 -0.250008 -0.134728 0.246324 0.449521 0.935315 -0.620801 -0.0827231 -0.139085 0.498975 0.673193 0.931699 -0.79391 0.155095 -0.700067 0.387118 -0.953182 0.103057 0.462552 0.569638 1.031 0.934273 1.27135 0.651699 1.61042 0.075823 0.450529 -1.63561 -0.62518 -1.60552 0.388882 0.428084 0.669932 -0.307794 1.14635 -0.280381 0.443781 -0.0422332 -0.475021 -0.380363 -0.0177132 0.767261 0.979115 0.113243 0.457477 0.419739 0.138058 0.518802 0.132453 -0.152648 1.4408 0.916499 -0.503423 0.185781 -1.28721 -1.43635 -1.18187 -0.796695 0.17171 -0.9799 -0.113368 -0.821017 0.381559 0.748865 -0.184437 -0.674299 -0.578637 0.867566 -0.920917 -0.545202 0.614633 1.18052 1.1562 0.173479 1.08348 1.0777 -0.145876 -0.172447 0.638813 -0.195713 -0.0933103 -1.25982 -0.706374 -1.32706 -1.61321 -1.73932 -0.311749 -0.0825769 0.673356 -0.859262 0.278834 0.0384381 0.239298 -0.46723 -0.885698 -0.402364 0.95173 0.490441 0.607086 0.0304701 0.457066 0.0327858 0.958205 0.40327 0.627962 0.0700347 0.83048 -0.779794 -0.573216 -0.0599648 -0.529967 0.289934 -0.894284 -0.582293 -1.00387 -1.07125 -0.0213469 -1.03747 0.737098 0.0907431 -0.19995 -0.892386 0.445951 0.499286 0.225086 -0.675006 -0.653226 -0.560711 1.03306 0.949951 -0.733994 0.676077 1.00479 -0.645676 0.219155 -0.382721 -0.509882 -0.448843 -0.755538 0.581734 0.917534 0.880488 -0.417081 -0.540722 0.178571 -0.257655 -0.803622 0.0917743 -0.0904123 -0.453817 -0.111696 -0.709005 -0.996294 -0.834008 0.428487 0.16693 -0.11638 0.87286 -0.882695 0.970563 -0.588219 -0.199378 -0.64606 -0.00227135 -0.743605 0.624736 -0.790509 0.224513 -0.735048 -0.281003 -0.824436 -0.492299 -0.234551 0.0513179 0.562796 0.309025 0.719649 -0.890196 -0.852762 0 0.34846 -0.40661 -0.160274 -0.599683 -0.153564 0.0267828 0.211483 -0.794917 0.76528 0.436275 0.499359 -0.815791 0.2068 0.443105 -0.205401 -0.677182 -0.39101 0.69944 -0.728595 0.605294 -0.662548 -0.827067 0.292609 0.129698 -0.612487 0.87344 -0.50247 -0.378263 -0.951747 0.685234 0.127817 0.78576 -0.488045 0.273096 -0.628834 0.188809 -0.250227 0.00903832 -0.641475 0.454054 0.933905 0.0314648 0.350272 -0.00923232 0.167873 0.588012 -0.105468 -0.198061 0.704098 -0.930111 0.253728 0.328595 0.8703 0.951932 -0.786671 -0.785954 0.954165 -0.129465 0.429885 -0.59057 -0.217077 0.222731 -0.387715 -0.967521 0.868461 0.340759 0.207062 0.821332 -0.594084 0.372265 0.0977927 0.0752191 0.139742 0.460698 -0.495858 0.282385 -0.209673 0.712713 -0.87051 0.584289 0.0706431 -0.845162 0.522626 -0.280127 -0.0365569 -0.00241226 -0.49902 0.579848 -0.655294 0.925878 0.38948 -0.336149 -0.609024 0.533036 -1.04979 -0.662986 -0.580545 -0.486666 -0.375383 0.00258633 0.513755 0.450726 0.27306 -0.470974 -0.642073 0.446694 0.410345 0.392938 0.318632 -0.139458 0.731762 0.73261 0.261724 0.142627 -0.334322 -0.190551 -0.197551 0.444865 0.733045 -0.022214 0.841095 -0.593258 -0.336341 -0.000668245 -0.494045 -0.170261 -0.260658 0.353003 0.918904 0.493413 0.293007 -0.942326 0.385058 0.481894 0.311468 0.0305556 -0.387527 0.178813 0.453582 0.772116 -0.961273 -0.962397 0.698525 0.785982 -0.761544 -0.493561 0.851596 0.689926 0.0772567 0.36189 0.773592 -0.665552 -0.147403 -0.500003 -0.393333 -0.317295 -0.566219 -0.214911 0.97696 0.349446 0.814159 0.551135 0.062759 0.152138 0.413652 -0.0997549 -0.0055916 0.0651161 -0.373602 0.452819 0.812145 0.401111 0.953954 0.464345 -0.863761 -0.849207 0.609231 0.987386 -0.286889 -0.947286 0.695462 0.440262 -0.481707 -0.867329 1.10792 0.130587 0.554184 -0.186741 -0.342396 0.699406 0.356941 -0.11475 1.16431 -0.248315 0.719673 -0.484738 -0.0750659 0.577938 -0.213239 0.00204662 1.00808 -0.253833 0.33059 0.296004 0.822223 -0.67636 -0.38873 0.887088 -0.85101 0.965645 -0.349909 0.620191 0.206254 0.973154 0.655865 0.284163 -0.367379 0.379405 -0.271816 -0.60172 -0.152472 0.496535 -0.490657 0.108975 0.248722 0.507275 0.0665491 0.232538 -0.899776 -0.805131 -0.329955 0.950692 0.69096 -0.465622 -0.0856437 -0.378213 -0.00467289 0.168596 0.290664 0.943256 -0.344827 -0.882393 -0.130748 -0.868207 0.401113 -0.154799 0.517792 0.228735 0.537556 -0.599423 0.16539 0.891616 -0.974249 0.0309782 -0.794346 0.531253 -0.227895 -0.688348 -0.0790212 -0.47619 -0.350438 -0.481648 -0.899585 0.25 0.862636 -0.946922 -0.14608 -0.208761 0.737704 0.655541 0.883341 0.171669 0.425485 0.636448 0.555806 0.516909 0.913567 0.952763 0.211246 0.0400547 -0.799118 0.312739 0.782655 0.523528 -0.212048 0.0266841 -0.415629 1.03374 -0.310639 -0.689905 0.23736 0.515291 0.351271 -0.0470092 -0.0680238 0.429247 -0.607037 -0.757321 -0.603089 -0.646221 -0.631346 0.44697 -0.617613 0.656119 0.0368083 1.02779 0.345842 -0.372493 -0.822374 -0.393534 -0.742597 0.39037 -0.239587 -0.606199 0.0799297 -0.687537 -0.15431 0.420068 1.00877 -0.392828 0.656775 0.563268 0.831104 0.249739 0.156765 0.454179 -0.631106 -0.834061 0.141504 0.404549 -0.193204 0.596918 -0.925968 0.060425 0.164082 0.268793 -0.182594 -0.936091 0.592769 -0.660841 0.978864 1.00321 0.463118 0.32214 -0.172885 0.243197 -0.548251 0.691633 0.243193 0.695252 -0.146082 -0.117184 -0.140439 0.759043 0.0502051 0.870002 1.01775 0.170185 0.385643 -0.844713 0.150628 0.486027 -0.961037 -0.81392 -0.083418 0.453793 -0.734428 -0.225378 0.832876 0.360869 0.215565 0.309182 0.915109 -0.676324 0.2389 0.423054 0.721507 -0.767109 0.804556 0.653821 -0.244969 0.235019 -0.755062 0.483872 -0.282213 -0.143154 -0.597612 0.0238737 0.911363 -0.331916 0.862463 0.0807494 -0.260927 -0.631442 -0.0198917 0.0787542 0.695599 0.143092 -1.03888 -0.916783 0.0800309 0.225927 -0.198332 0.840008 -0.501354 0.458877 0.570193 -0.161538 0.0599955 -0.566938 -0.00773629 0.429528 -0.124907 0.783581 -0.496591 0.607288 0.848141 0.914328 0.579655 0.0855357 -0.00769884 -0.908736 -0.715646 0.73389 0.0611588 0.380136 0.21488 -0.56505 -0.533445 0.666492 0.902877 1.03341 -0.461083 0.445393 -0.305264 1.03707 -0.595444 -0.595564 0.70456 0.391679 0.590108 0.0282708 0.464773 0.921728 -0.795063 0.47839 -0.70204 0.780296 -0.216351 -0.565881 0.591489 0.311478 0.298414 0.0793634 0.122646 -0.449892 0.478233 -0.00737035 0.922713 -0.260986 0.928096 -0.0977707 1.07703 -0.539936 0.599567 0.947732 -0.88605 0.435542 0.853702 0.803041 -0.686309 -0.714017 -0.0176834 0.349411 0.399576 0.638564 -0.951992 0.0629653 -0.160542 -0.438107 0.629052 0.941077 0.745167 0.691399 0.368139 0.0405951 0.894615 0.235093 -0.204189 -0.355609 0.865181 0.783571 0.977003 -0.732178 -0.286187 -0.343688 0.792219 0.551758 0.958234 -0.0985231 -0.670622 -0.574502 0.316686 0.531731 0.857757 0.862098 0.792305 -0.579779 -0.802999 -0.168089 0.909795 0.144162 0.550422 0.860587 -0.361966 0.531825 -0.600386 -0.482808 -0.121929 -0.166024 -0.546533 0.704267 -0.0924337 0.150129 0.731141 0.966076 1.07117 -0.933457 0.667621 0.493076 -0.328784 -0.354292 0.049273 0.51305 0.983065 -0.923673 -0.796574 -0.0214348 -0.106189 0.1748 -0.315463 -0.563178 0.818577 1.00931 0.264662 0.0172067 0.639096 0.274085 0.510716 -0.0805516 0.867223 -0.236198 0.376674 0.138812 -0.327179 0.548517 0.720655 0.814122 0.509522 0.307122 0.920633 -0.557393 -0.611176 -0.327131 -0.134368 -0.264036 -0.606159 0.475281 0.863922 -0.0488 0.549543 0.586964 0.0606387 -0.594149 0.400377 -0.701241 -0.179442 1.14858 -0.523054 -0.542853 -0.726187 -0.757693 -0.45381 0.393454 0.931931 -0.680376 -0.935526 0.952867 -0.285574 -0.379157 -0.316285 -0.236928 -0.305394 0.524949 -0.718344 0.0690492 0.77908 0.977304 -0.655483 0.856937 0.683798 -0.846972 0.778241 0.198555 -0.563102 0.0393526 0.771099 -0.721684 -0.569054 -0.571678 -0.793308 -0.373454 -0.347524 0.248794 -0.50709 -0.272012 0.905107 0.376928 -0.500331 -0.460758 -0.311551 -0.428329 0.261578 0.331 1.11201 -0.565679 -0.229526 0.290274 0.214844 -0.433088 0.256866 -0.921026 -0.65039 0.0502508 0.277713 0.980197 0.522313 0.893483 -0.161091 0.704022 0.941295 0.809113 0.835626 -0.927156 -0.437571 -0.609972 -0.419198 0.884262 0.831741 -0.866076 -0.391373 0.811217 0.515821 0.780553 0.711422 -0.254349 -0.626353 0.0552937 -0.926054 0.597367 -0.829957 -0.300526 0.0351242 0.561621 0.653246 -0.649726 0.224299 0.0324326 -0.144477 0.151686 -0.760613 -0.476557 0.205254 -0.220039 -0.352132 -0.289727 -0.0370131 0.525697 0.344622 -0.361836 0.331598 -0.40988 0.932329 0.304445 0.854806 -0.114827 -0.586234 0.0915457 0.119068 -0.429185 -0.488381 -0.156689 0.692757 0.544724 0.660493 -0.839933 -0.209862 0.758898 0.781257 0.950426 -0.350035 0.595424 0.646306 -0.651675 0.6619 -0.984547 0.190923 0.272975 0.810758 -1.02621 -1.02055 0.420578 -0.641213 0.244779 -0.22585 0.224272 0.920625 -0.482449 0.479521 -0.234733 0.436607 -0.509713 -0.781761 -0.0607651 -0.170547 0.0716385 0.774427 0.962646 -0.146626 0.00466585 -0.974767 0.303618 0.0619919 0.832594 -0.36195 0.699592 -0.782168 0.747293 0.306962 0.00423099 -0.0654896 0.012033 0.734142 -0.0620876 -0.0148034 0.291637 0.683926 0.44507 -0.187925 -0.396953 -0.543918 -0.168383 0.176703 0.31691 0.142354 -0.166872 0.618441 0.269597 -0.673049 0.833297 0.112616 0.0435494 0.451515 -0.79626 0.564528 0.776034 -0.298004 -0.417763 0.393803 -0.542845 -0.315896 0.379297 0.211687 -0.571568 0.959619 -0.503055 -0.340817 -0.599742 -0.859524 0.738793 -0.434346 0.196659 0.0865279 -0.575637 0 0.070878 -0.90038 -0.116611 0.578121 -0.926279 -0.202207 -0.376995 0.903656 -0.101856 0.594303 -0.12003 -0.852443 -0.60921 0.728313 -0.595695 0.284564 -0.750207 0.172961 -0.923914 0.058695 -0.576059 0.529481 0.574291 -0.324522 0.481807 -0.292809 0.515978 0.367627 0.683942 0.0585519 0.883949 0.329837 -0.963518 0.827717 0.538595 -0.667355 -0.048646 -0.122611 0.00724235 -0.191222 0.53339 -0.013103 -0.698172 -0.393339 0.294099 0.229394 -0.861078 0.392049 -0.599667 0.41862 0.750868 0.3252 0.65348 0.012404 -0.46663 0.489407 0.0689628 -0.607554 0.167365 0.175933 0.617518 0.571135 0.207776 0.246315 0.796991 -0.660441 0.166348 -0.0222634 0.0662225 0.151928 -0.0876202 -0.613832 0.389026 0.369907 1.10435 -0.80158 0.261975 -0.0117137 0.774623 0.219469 1.03043 0.643973 0.470896 -0.705847 0.639243 0.265304 -0.176553 0.447118 0.447575 -1.24549 0.730588 -0.145907 0.925566 -0.310631 1.01837 0.902746 0.568142 0.543168 1.11393 0.0232335 0.393989 -0.154959 -0.572092 -1.3615 -0.213041 -0.221753 -0.194872 -0.470474 0.935106 -0.294841 0.784515 0.799551 -0.847567 -0.24795 -0.772621 -0.184844 -0.173829 0.0801449 -1.05765 -0.702787 0.0708216 0.796544 0.197167 0.524158 -0.21585 1.19231 0.469522 -0.0937687 -0.385313 0.773383 -0.213419 -1.07761 -0.75378 -0.747793 -0.127534 0.161874 -0.270451 0.0403553 -0.0111299 0.458228 -0.914656 -0.693961 0.457168 0.610164 -0.787818 -0.496701 -0.669955 0.310764 0.272854 -0.389017 -0.114857 0.0616924 1.12645 0.422243 0.308906 0.994806 0.767171 1.06151 0.721692 0.822567 0.370476 0.285083 -0.0984557 -0.282207 -0.907441 0.15113 0.00174249 -0.0987206 -0.228534 0.0128176 0.775665 -0.999504 0.317529 -0.906707 -1.07203 0.0452387 -0.32222 0.66389 -0.0245815 1.29551 -0.0181147 1.21855 0.340829 -0.278486 1.17555 -0.0650618 0.27381 0.908043 -0.673001 0.061518 -0.9521 0.323766 0.0445545 -1.25405 -1.1552 -0.628123 -0.90762 0.0865643 0.601349 -1.30297 -0.169197 -1.4621 -0.025496 -0.363272 -0.307735 -0.342657 -0.605652 -0.320551 -0.333338 0.976713 0.335175 1.2793 1.00057 0.313993 0.81396 0.891451 0.899277 -0.372541 -1.489 0.178523 -0.323083 -0.4462 -0.234292 -0.0723621 -0.150972 -0.770073 0.77996 -0.0897803 -0.874188 0.385293 -1.19838 -1.06698 0.367067 -0.00300966 0.610567 0.26897 -0.483311 -0.120708 0.293865 0.812649 0.300714 0.54463 0.102133 0.579668 0.617608 -0.0964305 -1.49495 -1.11026 -0.0234885 -0.154845 -0.218979 -0.163622 -0.96969 0.768446 -0.399689 -0.591806 -0.563947 -1.15921 -1.35889 -0.469296 -0.754085 -1.00034 0.495432 0.732412 0.0744993 -0.696269 -0.439919 0.838857 -0.471492 0.6633 1.13929 -0.327251 0.775691 -0.417828 -0.298661 0.0362734 -0.87426 -0.417159 -0.914771 0.384953 -0.242206 -0.960379 -0.415207 -0.281711 -1.1671 0.258292 -1.3311 -0.514304 -1.20234 -0.223064 0.287141 -0.529922 -0.651358 -1.04807 0.227816 0.479623 0.212633 0.852783 0.937807 1.54729 0.182908 0.687587 -0.0798637 0.0328119 -0.788366 -0.808099 0.561929 -0.59489 -0.0459423 -0.127789 0.780253 -0.062666 -0.00868042 -0.0476836 -1.06302 -1.12285 -1.25363 0.293185 -1.21596 0.507705 -0.582698 0.0956731 0.261735 -0.14253 0.812662 0.823547 0.272788 0.395245 0.591858 -0.132326 0.389642 0.0703584 -0.877696 -0.296313 -0.316521 -0.933184 -0.79831 -0.190661 -0.599354 -1.17149 0.34138 -0.298298 0.0886546 -0.731386 -0.579493 0.464702 0.0265859 -0.348324 -0.278109 0.598544 0.739564 1.74043 0.150498 0.735416 0.264983 0.180369 0.251251 1.10502 0.516271 -0.533098 0.299474 -0.969564 -1.01093 -0.150848 -0.779506 -0.412036 -1.0282 0.0614154 -0.00405867 -0.26188 1.07652 -1.19183 -0.522268 -0.241297 0.239261 0.158136 1.19367 1.52674 0.927319 0.239806 0.41019 0.227088 -0.259723 0.942656 1.00944 0.424276 0.554569 0.638822 0.955111 0.657262 -0.256638 -0.150772 0.544477 0.494601 -1.06479 -0.195197 0.691153 -0.247702 0.272952 -0.974363 -1.18181 -0.711962 -0.604903 0.777785 0.72074 0.313904 1.17477 1.49902 0.201902 -0.453428 0.0246298 0.295646 2.93401 1.63684 2.06356 1.48386 1.88378 0.492743 -0.330415 -0.801893 0.592092 -0.46885 0.594043 0.00971641 -0.632501 0.372779 0.573953 -0.400522 -1.44593 -0.915946 -0.999155 -0.373672 0.027982 -0.290185 -0.0990818 2.17982 1.17443 0.93166 1.52049 1.34956 2.48734 1.40836 1.49581 1.16786 2.8912 1.29864 -0.379651 -0.121766 -0.887139 -0.858195 -0.028006 0.597523 0.522028 -1.01983 -1.73681 -1.94165 -1.50582 -0.218154 -1.88992 -1.71967 -1.33357 -0.787437 -0.275025 0.477962 1.54267 0.700297 0.917798 0.979835 1.13208 2.05687 0.992069 1.69181 2.14896 1.15949 0.467761 0.508494 -0.449186 0.504008 -0.309998 -0.0985887 0.341311 0.455494 -0.471503 -0.417247 -0.431194 -1.22313 -1.42327 -0.816456 -0.972567 -2.57741 -0.559826 0.128377 -0.917548 0.831673 0.0689993 1.38235 1.7909 0.916332 1.3446 2.10262 0.998563 0.536319 -0.165142 -0.159458 0.344953 0.824084 0.0677332 -0.131313 1.02029 -0.388915 0.779254 0.531831 -0.766746 -0.151154 -1.41494 -1.26911 -1.84737 -3.4808 -2.08397 -1.60638 -1.33379 -0.882248 0.020525 0.399166 0.779024 -0.269111 0.653374 1.68625 0.49942 1.24773 -0.521753 -0.786066 -0.220112 0.227766 -0.964734 -0.48479 0.89027 -0.122307 1.25764 -0.436062 0.043079 0.943021 -0.437807 -1.11491 -2.33303 -2.17775 -2.08649 -3.1428 -1.98265 -1.77408 -0.32103 1.04269 1.35062 1.24879 1.53423 1.60264 2.05724 1.03422 0.351289 0.0749013 0.142125 -0.967368 0.761131 -0.593351 0.999128 -0.415112 0.126603 0.692343 0.504066 -0.554903 0.316687 -0.375144 -0.675737 -2.11737 -1.52902 -3.03514 -3.7251 -2.04117 -0.227525 0.337542 0.263668 1.48391 1.6489 1.78062 0.262226 0.501209 -0.391802 0.250288 0.851907 -0.196583 -0.969446 -0.799351 0.0869118 0.587583 -0.452143 -0.890161 0.0454378 -0.0852139 -0.101001 0.552488 -1.01068 -1.23204 -1.776 -0.83684 -2.71928 -2.2117 -1.20902 -0.224108 0.515655 -0.422424 1.46713 0.404107 2.16128 0.645529 1.35814 0.173593 0.034611 0.158098 -0.995536 -0.387866 -0.630221 0.347418 0.599664 0.588465 -0.473001 1.6078 0.774598 1.03688 -0.243929 -0.7997 -1.57248 -2.59782 -2.52975 -1.81313 -1.51679 -0.0743401 0.339255 0.875666 0.3286 0.67964 0.136357 0.154225 0.101493 0.268503 -0.822473 -0.115955 0.124421 0.370146 -0.699894 -0.59084 0.123657 -0.360747 0.562436 0.756276 -0.190977 1.09686 -1.23983 -1.74225 -1.81369 -2.96643 -1.57786 -2.34242 -0.868799 -0.705468 -0.406894 0.467739 1.33351 0.498424 0.567713 -0.237872 0.903319 -0.290827 0.389831 -0.508482 -0.76077 1.01369 -0.850295 0.0193621 -0.521156 0.240324 -1.32465 0.745485 0.753633 -0.33923 -0.650076 -1.1195 -0.890153 -2.75427 -2.29531 -1.68249 -0.701821 -0.348014 -0.367077 0.2223 0.0245884 -0.381612 1.28542 -0.251472 -0.603172 -0.363302 0.701575 0.766639 0.454511 -0.714399 0.570531 -0.80234 0.434929 -1.06582 0.050444 -0.722297 0.439321 0.987529 0.600373 -1.16629 -0.428674 -0.810634 -0.24145 -1.58615 -1.26424 -0.17106 0.0384759 -0.0708511 -0.732244 -0.617625 0.216722 0.0407396 0.0850934 -0.0515007 -0.668959 -0.283145 -0.361463 -0.204277 -0.409089 0.472051 -0.00770036 -0.170837 -0.115761 0.800133 -0.521339 -0.447115 0.748478 0.288984 0.678746 -0.890256 0.490826 -0.760624 0.624802 0.849102 0.83567 0.0314643 -0.465 -0.544156 0.853814 -0.192354 -0.31402 0.953171 0.238962 0.971653 0.558238 0.35563 0.000709368 -0.283665 -0.89889 0.874046 -0.952814 0.747484 -0.343074 -0.747188 0.924204 0.713596 -0.708709 -0.632142 0.0299518 -0.344066 0.449386 0.0836086 0.297852 -0.922802 0.862094 -0.379889 -0.333171 0.342457 0.282804 -0.453225 0 0.73593 0.686071 0.178155 -0.48408 -0.00430216 -0.777544 -0.182464 0.942262 -0.666184 0.789311 -0.786759 -0.434422 0.0240475 0.167518 -0.0244565 0.361289 0.951161 -0.964062 -0.240822 -0.743729 0.14936 -0.340258 0.621822 -0.293961 0.0583909 -0.175108 -0.013079 0.208359 0.520949 0.899434 0.988981 0.304523 -0.839466 -0.967965 -0.438526 0.95448 0.00869299 0.035318 -0.1979 -0.962884 -0.205987 -0.219806 -0.971267 0.145568 0.010556 0.0921775 0.550192 -0.890873 -0.894161 0.405618 0.293659 0.434311 -0.368315 0.261693 -0.360947 -0.0509154 0.410301 0.551688 -0.455164 0.664569 -0.683288 0.925811 -0.543246 -0.180401 0.229388 -0.880291 0.0276968 -0.491298 -0.183133 1.1326 -0.654354 0.503301 -0.34671 0.462648 -1.00785 -0.390632 -1.45761 0.185376 -0.0987521 -0.311145 -1.03031 0.0670354 0.656968 0.722301 0.0912192 -0.860129 0.737135 0.67824 0.504542 -0.16721 0.158525 0.336978 -0.928805 0.458028 -0.340811 0.422272 -0.0876966 0.760964 0.795873 -0.440081 -0.435478 -1.01927 -1.40686 -0.0032527 -0.184479 -1.19115 -0.805212 -1.08705 -0.649694 0.14653 -0.184167 0.0272404 0.813186 0.196654 0.396744 -0.675514 0.460419 0.226682 -0.244968 0.0388106 0.607648 0.24235 0.579743 0.660033 1.69551 1.81446 0.882216 -0.207527 -1.35667 -1.63712 -0.807516 -0.920665 -1.68696 -1.0248 -0.53936 -0.842554 -0.658706 -0.600474 0.256852 0.757605 0.517362 0.9033 -0.190268 0.439244 -0.806211 -0.922469 -0.88923 0.287105 -0.46938 1.31045 0.183164 1.02405 0.422425 0.763883 -0.343868 0.00309857 -2.03765 -1.96368 -1.12697 -1.38899 -0.486948 -0.298455 -1.26714 -0.649496 -1.00948 -1.45514 -1.25372 -0.232452 -0.60442 0.773593 -0.0976341 -0.209807 0.567518 -0.455556 -0.105126 0.800072 -0.419148 1.35658 0.668896 0.415288 0.769902 1.11694 0.619355 -0.452395 -0.627377 -1.77271 -1.48021 -1.25977 -0.276091 0.0680331 -0.675709 0.255973 -0.122597 -0.184119 0.0595134 -0.296065 0.256262 -0.794521 -0.865616 0.514128 -0.720906 0.835033 0.655766 0.0973491 0.870056 0.480977 1.28143 0.344265 1.60854 0.916844 0.255305 -1.01429 -1.13568 -2.2882 -1.92744 -1.41665 -1.22727 -1.22275 -1.13847 -0.852764 0.399231 0.101398 -0.499816 0.0604361 0.490077 0.891804 -0.276318 -0.400371 -0.318799 0.239537 -0.0839287 -0.404458 0.482268 0.698071 1.51542 0.569018 -0.166186 1.44672 0.140903 -1.04027 -0.00219357 -0.918764 -2.43685 -0.646468 -0.490766 -0.951346 -0.466874 0.0317137 -1.30602 -0.879471 -0.0870841 0.481719 0.722879 -0.686644 0.499616 0.65503 -0.820258 -0.348864 0.167288 0.708599 1.55864 -0.645478 1.20508 0.369529 -0.252806 -0.12303 0.86775 -0.0309931 -0.607975 -0.708645 -1.97648 -1.82117 -1.41673 -1.15774 0.402355 -0.974814 -0.348703 0.392699 -0.798776 -0.304691 -0.232722 0.00388074 -0.805094 0.0455024 0.389618 0.54376 -0.864582 0.833109 1.24372 0.749443 0.524343 -0.480381 0.000797151 0.0193618 -0.585495 0.927023 1.18179 -0.385979 -0.580725 -2.05016 -1.77783 -0.398116 0.425941 -0.449105 -0.647704 0.0266338 -0.494982 -0.904178 0.382055 -0.282158 -0.447295 0.00588877 -0.768303 -0.705582 -0.917371 -1.00141 -0.90953 -0.178628 0.25283 0.545019 -0.627662 0.26711 1.07244 -0.00825236 0.481902 -0.692946 -0.6326 -1.01839 -1.15082 0.385419 -0.13103 -0.913721 -0.923435 0.381161 -1.15783 0.570137 -0.802625 -0.166527 0.0365396 0.156051 0.593073 0.00794721 0.845012 -0.494839 -0.00360217 0.625297 -0.905224 0.327068 0.319128 0.484339 -0.99346 -0.900774 0.873192 -0.211763 -1.34244 -1.43234 -1.60141 -1.85637 0.959285 -0.133238 0.6227 -0.411685 -0.549218 0.795165 0.158016 0.892292 -0.575518 0.0594473 -0.032719 0.56363 -0.256548 -0.429103 -0.739381 -0.815799 0.960341 -0.231542 -0.192408 0.0111818 0.433474 -0.131877 -0.661196 -0.729208 -1.97607 -2.52451 -0.511372 -0.707912 0.674119 -0.127936 0.410491 -0.0734447 0.361221 0.151728 -0.842068 -0.312206 0.776782 0.578165 0.356244 0.843183 -0.194862 -0.911322 -0.561237 -0.713039 -0.531968 0.162968 1.05482 0.334896 -1.98664 -0.680494 -0.357967 -0.777193 -1.87656 -2.37571 -1.20286 -0.616049 0.342293 -0.0253774 0.929162 0.869643 0.640879 0.695952 0.69455 0.604691 -0.935474 1.09121 -0.327762 -0.308328 -0.573453 0.265648 -0.906277 0.992149 -0.0166256 1.09461 0.382669 -1.37925 -1.01063 -1.53333 -0.261211 -1.2108 -0.784127 -0.655907 0.536252 0.585604 0.79539 1.15435 1.71769 0.484108 0.530751 -0.300338 0.77467 -0.723473 0.723427 -0.495826 0.235744 0.579509 0.103206 0.341658 1.21826 0.91719 -0.00780571 0.435367 -1.14323 -2.13414 -1.36367 -1.35646 -1.18509 -0.95279 0.152425 1.46997 0.777401 1.37456 1.49246 0.90519 1.56925 0.692671 0.734597 -0.885254 0.86116 0.065256 0.957205 0.85534 -1.49787 -0.830069 -0.196962 -0.562906 1.29264 1.42599 1.00102 0.719831 -1.04617 -0.385968 -1.60332 -1.90098 -0.0284658 0.782215 0.926735 0.799705 1.42024 1.63631 0.74229 0.806384 0.0637486 0.511669 0.579583 1.03116 0.491344 0.767612 0.815791 0.0529556 0.198548 0.290613 0.884921 -0.0400971 1.07326 0.625542 0.00535824 -0.848301 -0.690516 -0.568061 -0.0307608 -0.0879965 0.126216 1.0697 1.42117 0.235876 1.24014 0.830431 0.954996 0.19142 0.629902 0.215403 1.01925 0.451808 0.863255 -0.00281423 -0.862576 0.401874 -1.28249 0.398245 0.399542 0.820825 0.791489 0.0355726 -0.510053 0.689107 -0.925429 -0.0573843 -0.731625 0.359866 0.2979 1.46445 -0.0626205 1.13656 0.238914 -0.224621 0.364206 0.227114 -0.704644 -0.681232 0.155665 0.796608 0.41437 -0.802638 0.90024 0.396404 -0.694703 -0.520822 0.788848 0.69275 0.172913 -0.260274 0.169223 -0.417606 0.362941 0.844027 0.646441 0.024892 0.0249994 0.80439 1.04232 -0.380934 0.250144 0.822889 -0.510126 0.316964 0.562354 0.609343 0.802487 0.0137386 0.534029 0.641405 -0.497862 0.0970127 0.111103 -0.201142 -0.302638 0.674839 0.0753584 0.483235 -0.441437 0.704863 -0.120835 1.25734 0.330702 -0.232864 0.871515 -0.794455 0.277557 0.799607 -0.668222 1.04181 0.145313 0.375629 0.0103335 0.462312 -0.329871 -0.00874802 -0.327228 0.858392 0.495437 0.634276 -0.445906 0.185437 -0.576201 0.462791 1.04127 -0.259951 1.20946 0.665099 -0.129467 0.799647 0.32627 0.682086 -0.0520867 0.8173 0.673203 0.718048 -0.343802 -0.25159 0.524418 -0.115046 -0.218192 0.419102 0.862478 -0.704473 -0.309828 0.245876 -0.590632 0.549212 -0.680789 0.625668 0.63588 -0.939504 0.85572 0.351538 0.579754 -0.0854972 -0.883418 0.819499 0.656374 1.25524 1.39314 -0.278573 -0.283763 0.643275 -0.271787 0.693221 -0.139743 0.371854 0.908894 1.02544 0.871187 -0.407124 -0.647275 -0.542954 -0.117944 0.0384721 -0.497235 0.667344 0.107636 -0.632757 -0.444658 -0.284685 0.932037 -0.183941 -0.443315 0.36745 1.18294 0.321278 0.352255 0.227099 0.305644 0.761934 0.450217 0.878235 0.310268 0.900875 0.890585 -0.872698 -0.135118 -0.846321 -0.872952 -0.68965 -0.54174 0.970497 -0.409279 -0.620489 -0.594179 -0.655872 0.0270487 0.516783 0.4617 -1.02952 0.783472 0.678254 -0.92754 -0.650512 -0.451621 -0.0122986 1.05463 0.84778 0.99182 0.232469 0.255294 -0.0366568 0.79233 0.569321 0.875039 0.0885061 -0.980214 0.707042 -0.15094 -0.718525 0.413292 -0.0704269 -0.492388 -0.735233 -0.517302 0.85537 0.250444 0.559287 -0.107881 -0.853667 0.416294 -0.543184 0.0646561 0.625724 0.719572 -0.338617 0.512576 0.856498 0.70405 -0.185438 0.765582 0.1916 -0.587453 0.615925 -0.262991 0.771991 0.569059 -0.731835 -0.737252 0.326327 0.84246 -0.247548 0.601004 0.0595875 -0.0748581 -0.536517 -0.275235 -0.567977 0.689319 -0.499731 -0.780465 0.503614 -0.546174 0.190547 0.112013 0.394401 0.394498 0.147513 -0.992812 -0.817298 0.616326 0.351797 0 -0.897036 -0.548194 0.2428 0.495296 0.553717 -0.902148 0.583121 -0.156646 -0.797169 -0.183224 0.642409 0.674999 -0.5112 -0.0181808 -0.07875 0.561862 -0.00349638 0.93243 0.378059 -0.963418 -0.829001 -0.853648 0.490859 0.875076 -0.76921 0.975209 0.878436 0.042719 -0.643458 0.6788 -0.846246 -0.137563 -0.999289 -0.871547 0.0679122 0.318626 -0.00197193 0.087083 0.802847 -0.82448 -0.742363 0.652224 0.885516 0.615232 -1.0338 0.52791 -0.234602 0.705374 -0.91919 -0.0517609 -0.956296 0.933286 -0.791989 -0.355384 0.467928 -0.834658 0.911475 -0.943802 0.606279 0.980409 -0.500477 1.09961 -0.322718 0.662829 0.757662 0.29862 0.104169 0.569449 0.223716 -0.837662 -1.12254 -0.797313 -0.415912 -0.274113 -1.10041 -1.11453 -1.11028 0.523325 -0.995294 0.90024 -0.22594 -0.303604 1.16481 -0.536667 -0.539499 -0.375653 -0.0828143 0.84323 0.322562 0.29953 0.360896 -0.0624909 0.245877 -0.0485692 0.0901247 0.281134 0.347771 -0.444886 -1.3918 -1.24159 -0.261024 -1.04337 0.842494 -0.403117 1.13279 -0.314488 1.04775 -0.711696 0.459678 1.01276 -0.0323374 -0.302351 0.0144097 -0.972983 0.608999 0.305119 0.609608 1.45426 1.65051 0.515634 1.23703 2.05733 1.91938 0.0563742 0.101654 -0.970909 -0.370368 -0.509768 -0.489158 -0.721878 0.267123 2.03247 0.386628 0.983309 0.537794 0.299295 0.417229 -0.779872 0.137923 0.609322 0.431251 -0.708209 0.0973995 -0.114567 0.0812409 -0.0237046 0.608846 1.01617 1.5566 0.451935 0.164059 0.495432 -0.764651 -0.320241 -0.303731 -0.625742 -0.776873 -0.047693 1.57329 0.553737 1.1954 0.527082 -0.797281 -0.745316 0.488557 0.406523 -1.01303 0.803925 0.178722 0.952196 0.288257 0.219808 -0.325993 1.26977 0.897178 0.878001 2.47492 0.855347 1.64043 1.04213 -0.616347 0.159791 -0.23565 1.21476 1.48052 0.539038 0.502119 1.45372 0.728211 0.563059 0.212532 -0.240795 -0.0591318 -0.523891 -0.492353 -0.605307 0.415183 0.357917 -0.391525 -0.68007 1.07897 0.282267 0.670734 0.105466 1.48403 1.27223 0.227816 0.53791 0.227427 0.789711 1.55986 1.42816 1.20587 -0.0943436 0.932674 1.0824 -0.592943 0.170894 -0.0551699 0.154141 -1.15849 -0.359292 -0.0443553 0.756406 0.138113 0.53308 -0.633492 -0.00341314 0.717919 -0.11516 0.609771 -0.418288 -0.344645 1.11204 1.05607 0.976406 1.46836 1.47666 1.05678 2.14308 1.34878 0.418838 1.0288 -0.112599 0.451074 -0.26744 -0.789226 -0.0826551 -1.21075 -0.417723 -1.17367 -0.272881 -0.0789085 -0.360735 -0.323461 -0.804672 0.0461293 0.26177 0.580553 0.194901 0.0778477 -0.578109 0.642419 0.14435 -0.259133 0.225601 0.654213 0.173059 1.43149 0.149856 0.177494 0.184932 -0.293613 -0.734834 0.0897244 0.412616 -0.508186 -1.79259 -0.0479712 0.720088 -0.524589 -0.0697481 -0.467903 -0.937597 -0.670303 -1.64993 0.509462 -0.484775 0.618283 -0.330328 -0.336588 -0.77229 -0.046209 1.22029 0.603353 0.539884 0.658514 -1.15121 -0.872399 -1.12526 -2.36356 -1.62517 -1.81397 -0.711678 -1.4996 -1.12414 -1.04026 -0.200328 -0.314456 0.0308568 0.14064 -0.205096 -1.13546 -1.65298 0.450708 -0.421427 -0.673322 -0.274427 -0.611466 -1.2961 0.565631 0.496898 -0.802457 0.156398 0.0667481 0.152579 -0.497124 -1.965 -2.03352 -3.00297 -1.95606 -2.40797 -1.68893 -0.686595 -1.36245 0.507343 0.578745 0.481173 -0.207718 -1.38884 -1.67447 -0.100021 -0.278214 0.517689 0.205451 0.417696 0.098004 0.567263 -1.06749 -1.21249 -0.265151 -0.836239 -0.95521 -0.582162 -2.07449 -1.84094 -1.91064 -2.72113 -2.56537 -2.64832 -1.44728 -2.31772 -1.5188 -0.543771 -0.267933 -0.984241 0.778402 -1.29401 -0.855582 -0.833054 0.419272 -0.416479 -0.919991 -0.836071 0.365736 -0.863971 -0.676618 0.715281 0.581366 -0.302286 -1.30064 0.139851 -0.000428002 -0.948651 -1.60782 -1.32494 -1.72323 -1.66413 -2.33092 -1.20629 -0.766957 -0.695184 0.810445 -0.227107 -0.0406749 -0.296578 -0.937768 -0.81988 -1.28434 0.709201 0.680339 0.158898 1.20217 0.0036314 -0.73012 0.647165 -1.2811 -1.28684 -0.434207 -1.49378 -0.14294 -0.359946 -0.44404 -0.970442 -1.11964 -0.905658 -0.932702 -0.662424 -1.21658 0.36804 0.0521316 -0.511439 0.636054 -0.710802 -1.80364 -0.646803 -0.607898 -0.392006 -1.07791 -0.204314 -1.06305 -0.633448 -1.5461 -0.344376 -1.97664 -1.73218 -0.143387 -0.646561 -0.284312 0.608919 0.0634395 -1.39948 -0.615699 -1.25901 -0.156074 0.237948 -0.98228 0.0746879 0.754278 0.047195 -0.141591 -0.260068 -0.920876 -0.490693 0.487305 0.140182 0.355883 0.392933 -0.0203854 -1.1579 -0.729035 -1.55454 -1.27399 -2.31939 -1.36825 0.392717 -0.0301634 0.628133 -0.716369 -0.634417 -0.533885 0.425102 -0.75768 -0.132675 -0.719881 0.802017 0.258351 -0.981922 -0.713551 -1.22879 -0.32143 -0.250084 -0.509016 -0.554924 0.904317 0.1579 0.12685 -1.16154 -0.647799 -1.87407 -1.49422 -1.11985 0.512647 0.678216 0.901576 0.294901 0.00272854 -0.381277 -0.431194 -0.114072 -0.729398 0.0448668 0.439106 -0.538966 0.0903547 